svm_type c_svc
kernel_type rbf
gamma 0.5
nr_class 7
total_sv 814
rho -0.8041038542117235 -0.7629285825178772 -0.5853376107927586 -0.5882876944726422 -0.879202001818709 -0.8359872028401474 0.3823830783367157 0.5506285380956513 0.6156761337507204 0.7375352464114404 2.5646944107190333 0.5053640290610351 0.5591102099367009 0.43777781483299893 0.26206313117840085 0.02612391487568586 -0.5207657945595181 -0.5144468873032778 -0.5477913452053963 -0.4205924182988447 0.5411675937833866
label 0 1 2 3 4 5 6
nr_sv 114 114 35 77 59 191 224
SV
0.0 0.0 0.0 0.016717050633717496 0.0 0.0 0:-0.796247348 1:0.6424284503 2:-0.7961991468 3:0.6491613366 4:-0.7962092111 5:0.6296852293 6:-0.7962008096 7:0.905531423 8:-0.7962002447 9:0.9154723731 10:-0.7962034729 11:0.9080866863 12:-0.6765935485 13:-0.7962043875 14:-0.7869402057 15:-0.2337469338 16:-0.6303385376 17:-0.026737337 
0.0 0.0 0.0 1.0 0.0 0.0 0:-0.7961915637 1:0.6222633424 2:-0.7962034541 3:0.6491613366 4:-0.7962048681 5:0.6491613366 6:-0.7962031366 7:0.7601837772 8:-0.7962088531 9:0.905531423 10:-0.7962033115 11:0.346354144 12:-0.6736121957 13:-0.7962043875 14:-0.7881607267 15:-0.7962043875 16:-0.6324651674 17:-0.7962043875 
0.0 0.0 0.0 1.0 0.0 0.0 0:-0.796265148 1:0.601911424 2:-0.7960399582 3:0.5940840882 4:-0.7959794924 5:0.4837038568 6:-0.7971926224 7:0.9517624362 8:-0.7931474247 9:0.7844744818 10:-0.7959907907 11:0.8915858939 12:-0.6478331987 13:0.0327225008 14:-0.7810553377 15:0.29410971 16:-0.6574244782 17:0.0044766826 
0.0 0.0 0.37770681925814564 0.288998262314318 0.0 0.0 0:-0.7960146534 1:0.4339038496 2:-0.7961952995 3:0.5558736058 4:-0.7964178456 5:0.505343107 6:-0.7960618952 7:0.4596151621 8:-0.7961621279 9:0.8256828866 10:-0.7962869321 11:0.1399822114 12:-0.6796410699 13:-0.4340062525 14:-0.7989513159 15:0.5484295074 16:-0.6279573805 17:0.5569109283 
0.0641491473100872 0.06307843178709659 0.10327257034322421 0.1942076017257188 0.0 0.0 0:-0.796190911 1:0.6128702569 2:-0.796265509 3:0.0871609532 4:-0.7961203738 5:0.0871609532 6:-0.7962003389 7:0.5629483092 8:-0.7962100368 9:0.9183145293 10:-0.7962127807 11:-0.7313042005 12:-0.6805418485 13:-0.7962043875 14:-0.7974429637 15:-0.7962043875 16:-0.6273117593 17:-0.7962043875 
0.0 0.0 1.0 0.0 0.0 0.0 0:-0.7962044243 1:0.6500033393 2:-0.7962060808 3:0.6491613366 4:-0.796205744 5:0.6500033393 6:-0.796206102 7:0.7338004404 8:-0.796195976 9:0.9254429374 10:-0.7962028338 11:0.8152649803 12:-0.6858665831 13:-0.7962043875 14:-0.7814543072 15:-0.7962043875 16:-0.6244135937 17:-0.7962043875 
0.0 0.0 1.0 0.8081528127191625 0.0 0.1029902766040803 0:-0.7961698177 1:0.6060125957 2:-0.7961789191 3:0.601905979 4:-0.7962210961 5:0.6181409721 6:-0.7961368248 7:0.8924818198 8:-0.7965349918 9:0.5141114114 10:-0.7962066069 11:0.6881036688 12:-0.6831936124 13:0.5081461391 14:-0.7837064881 15:-0.7962043875 16:-0.6260017639 17:0.5679574496 
0.0 0.0 1.0 1.0 0.0 0.0 0:-0.7962351741 1:0.6491613366 2:-0.7962160878 3:0.6222633424 4:-0.7962306636 5:0.6442019876 6:-0.7962087186 7:0.9154723731 8:-0.7962249402 9:0.8842640578 10:-0.7962009441 11:0.9174617946 12:-0.6777255903 13:-0.7962043875 14:-0.7851538057 15:-0.7962043875 16:-0.6296369295 17:-0.7962043875 
0.0 0.0 0.0 1.0 0.0 0.0 0:-0.7962368719 1:0.5288348134 2:-0.7962247323 3:0.562073192 4:-0.7961894554 5:0.6446160266 6:-0.7962011863 7:0.8797331609 8:-0.7962106286 9:0.918030276 10:-0.7962041185 11:0.2940766679 12:-0.6772598858 13:-0.7962043875 14:-0.7853009431 15:-0.7962043875 16:-0.6299594171 17:-0.7962043875 
0.0972327611881895 0.11733420526717751 0.6265392991421662 0.37068106318379945 0.1053670759673551 0.20411350538235884 0:-0.7962481132 1:0.3986592196 2:-0.7961960546 3:0.6303233327 4:-0.7959216991 5:-0.7749336952 6:-0.796209176 7:0.5058362903 8:-0.7961989534 9:0.9154723731 10:-0.7962021547 11:0.710026155 12:-0.6864713585 13:0.5767437269 14:-0.7815721081 15:-0.7962043875 16:-0.6240168304 17:0.6500033393 
0.0 0.0 1.0 0.0 0.0 1.0 0:-0.7996620645 1:0.262792045 2:-0.796705413 3:0.5020434449 4:-0.7945369349 5:0.2883809214 6:-0.7964260955 7:0.8287369235 8:-0.7958765226 9:0.5121770046 10:-0.7960799218 11:0.8239178771 12:-0.7234223494 13:0.1696089238 14:-0.8067192162 15:0.4153605962 16:-0.6054188709 17:0.4217724801 
0.038942248155762534 0.020163556218910764 1.0 1.0 0.09819278939638357 0.16061576346385595 0:-0.7961975987 1:0.6399050565 2:-0.7961512423 3:0.2723289215 4:-0.7962178245 5:0.646467513 6:-0.7962092432 7:0.475819259 8:-0.7962215909 9:0.412934571 10:-0.7962004196 11:0.8466670073 12:-0.6803744632 13:0.6303233327 14:-0.7822335149 15:-0.7962043875 16:-0.6280012033 17:-0.7962043875 
0.14622025464670504 0.08256257657801754 0.14264250400575465 0.014976106281975264 0.34242251447020267 0.38249287714282904 0:-0.7960363106 1:-0.7310414905 2:-0.7961960866 3:0.626460245 4:-0.7963234051 5:-0.0867449863 6:-0.796227442 7:0.346354144 8:-0.7961825436 9:0.412934571 10:-0.7961890268 11:0.475819259 12:-0.6799275014 13:-0.7962043875 14:-0.8013058835 15:0.3591954734 16:-0.6278069377 17:-0.7962043875 
0.0 0.0 0.0 0.0 0.0 0.03682056550726825 0:-0.7962384335 1:0.420093259 2:-0.7962341418 3:0.5835883234 4:-0.7962230143 5:0.5948237082 6:-0.7961905871 7:0.7870512413 8:-0.7963140375 9:-0.1215911024 10:-0.796194165 11:0.8114692521 12:-0.6768480022 13:0.0871609532 14:-0.7855010862 15:-0.7962043875 16:-0.630243503 17:0.317065193 
0.00786298941077104 0.03554897292613243 0.7908677270124223 0.8968753556095891 0.0 0.0 0:-0.7960594607 1:0.115259608 2:-0.7961202912 3:0.6111166896 4:-0.7961793027 5:0.408774198 6:-0.7961913942 7:0.7308902552 8:-0.7961828126 9:0.9023702955 10:-0.7962592394 11:0.918030276 12:-0.67950588 13:-0.7962043875 14:-0.8012777138 15:0.6303233327 16:-0.6280993829 17:0.345445464 
0.0 0.0 0.19377091062661822 0.0 0.0 0.0 0:-0.7962095339 1:0.6491613366 2:-0.7962313354 3:0.5901045987 4:-0.7961927872 5:0.6446160266 6:-0.7961976084 7:0.2581452388 8:-0.7962134802 9:0.1454006207 10:-0.7962076964 11:0.8263766943 12:-0.6862667272 13:-0.7962043875 14:-0.7816384509 15:-0.7962043875 16:-0.6241415578 17:-0.7962043875 
0.0 0.0 0.0 0.27604253713118626 0.0 0.0 0:-0.7962084951 1:0.6446160266 2:-0.7961970109 3:0.6370461602 4:-0.7962938037 5:0.1231896939 6:-0.7962030694 7:0.8924818198 8:-0.7962156323 9:0.8466670073 10:-0.7962041723 11:0.2398632259 12:-0.6871082219 13:-0.7962043875 14:-0.7814375665 15:-0.7962043875 16:-0.6236238804 17:-0.7962043875 
0.0 0.0 1.0 0.0 0.0 0.0 0:-0.7961878448 1:0.5962917065 2:-0.7962356177 3:0.5376288815 4:-0.7962362099 5:0.5962917065 6:-0.7962017915 7:0.7783664782 8:-0.7962132112 9:0.9080866863 10:-0.7962061361 11:0.9026930391 12:-0.6818715314 13:-0.7962043875 14:-0.7989618504 15:-0.7962043875 16:-0.6264266859 17:-0.7962043875 
0.0 0.0 0.0 1.0 0.0 0.0 0:-0.7962432061 1:0.5299241498 2:-0.7962186149 3:0.6192266039 4:-0.7962124582 5:0.5694388601 6:-0.796085618 7:0.3631654812 8:-0.7962580826 9:0.7459114253 10:-0.7962114357 11:0.7983050925 12:-0.675189354 13:-0.7962043875 14:-0.7884430738 15:0.3986592196 16:-0.6312852334 17:-0.7962043875 
0.0 0.0 0.0 1.0 0.0 0.0 0:-0.7962263569 1:0.6420946618 2:-0.7962123487 3:0.6500033393 4:-0.7962260631 5:0.614612423 6:-0.796255071 7:0.7817541044 8:-0.7962280684 9:0.869137747 10:-0.796181671 11:0.8303850916 12:-0.6765368633 13:-0.7962043875 14:-0.7871812716 15:0.256849098 16:-0.6303672015 17:0.1581992637 
0.0 0.0 0.0 0.0 0.0 1.0 0:-0.7974368397 1:0.3068049933 2:-0.7961321393 3:0.4209668642 4:-0.7968212838 5:0.1256084483 6:-0.7957555832 7:0.7887875222 8:-0.8007718718 9:0.4227663073 10:-0.7967230133 11:0.5877862304 12:-0.6612184076 13:-0.0565667829 14:-0.7927015206 15:0.3708079539 16:-0.6473359561 17:0.0535303298 
0.0788285933206887 0.08119174472467233 0.5132047973206997 0.12111350793212022 0.15247636775850154 0.13443171866535258 0:-0.7961906851 1:0.602148847 2:-0.7961229552 3:-0.007172783 4:-0.7962526455 5:0.4800744927 6:-0.7962190891 7:-0.3661828869 8:-0.7962089473 9:0.9183145293 10:-0.7961960077 11:0.363338381 12:-0.6798794519 13:-0.7962043875 14:-0.7822056885 15:-0.7962043875 16:-0.6283454523 17:-0.7962043875 
0.0 0.0 0.0 0.05015320545672519 0.0 0.0 0:-0.7962477303 1:0.6370461602 2:-0.7962033778 3:0.6506770041 4:-0.7960659228 5:0.5668282596 6:-0.7962172195 7:0.918030276 8:-0.7961760873 9:0.9174617946 10:-0.7962059478 11:0.9123469682 12:-0.6771573822 13:-0.7962043875 14:-0.7850308052 15:-0.7962043875 16:-0.630050838 17:-0.5486689752 
0.0 0.0 0.18652938352632387 0.0 0.0 0.0 0:-0.7962345241 1:0.5288348134 2:-0.7962127193 3:0.6338521188 4:-0.796185663 5:0.5962917065 6:-0.7962145135 7:0.6792177708 8:-0.7962094237 9:0.9255844685 10:-0.7961968332 11:0.9254429374 12:-0.6752129487 13:-0.7962043875 14:-0.785411501 15:-0.7962043875 16:-0.6314358972 17:-0.7962043875 
0.0 0.0 0.0 1.0 0.0 0.0 0:-0.7962286411 1:0.602148847 2:-0.7962370371 3:0.546100718 4:-0.7961698571 5:0.6399050565 6:-0.7962094719 7:0.9123469682 8:-0.7961843729 9:0.8842640578 10:-0.7962043337 11:0.8749214566 12:-0.6772414888 13:-0.7962043875 14:-0.7852947089 15:-0.7962043875 16:-0.629973069 17:-0.7962043875 
0.0 0.0 0.43843525732819827 0.0 0.0 0.0 0:-0.7961954302 1:0.5957637898 2:-0.7964026896 3:0.6232128052 4:-0.7962474011 5:0.4731731139 6:-0.7962127455 7:0.8688736428 8:-0.7980046167 9:0.6998779171 10:-0.7964087289 11:0.8776466769 12:-0.6797705251 13:0.2302651986 14:-0.7850681746 15:0.6494343109 16:-0.6286659277 17:0.2579549123 
0.0 0.0 0.06932996738106614 0.2653220102768779 0.049010670844631954 0.3125256860004567 0:-0.7961609935 1:0.3615671381 2:-0.7962760642 3:0.1494372077 4:-0.7963366339 5:0.4799652323 6:-0.7961513734 7:0.6308705419 8:-0.7962708762 9:0.9052253002 10:-0.7962608573 11:-0.4807065357 12:-0.6793179545 13:-0.4797667421 14:-0.7976145715 15:-0.7962043875 16:-0.6281586642 17:-0.0665283232 
0.0 0.0 1.0 0.0 0.0 0.0 0:-0.7962495439 1:0.6076752665 2:-0.796235054 3:0.5962917065 4:-0.7961216591 5:0.621046605 6:-0.7962053291 7:0.9140516089 8:-0.7961958867 9:0.918030276 10:-0.796205087 11:0.918030276 12:-0.6767739983 13:-0.7962043875 14:-0.7858191118 15:-0.7962043875 16:-0.6302749569 17:0.5005313812 
0.0 0.0 0.0 0.0 0.1678085944065669 0.0 0:-0.7968674693 1:0.2909575399 2:-0.7964100832 3:-0.0505195105 4:-0.7957293969 5:0.3098251317 6:-0.796223059 7:0.4706770919 8:-0.7962812935 9:0.4419222892 10:-0.7961923763 11:-0.5952946604 12:-0.6880202388 13:-0.7962043875 14:-0.7799765895 15:-0.7962043875 16:-0.6231822515 17:-0.7962043875 
0.0 0.0 0.08833375748641392 0.7119769957345476 0.0 0.0 0:-0.7962263339 1:0.5542491842 2:-0.7961996548 3:0.646467513 4:-0.796238087 5:0.562073192 6:-0.7962016705 7:0.8466670073 8:-0.7962210126 9:0.5900170568 10:-0.7962044951 11:0.2940766679 12:-0.6762145716 13:0.6479826791 14:-0.7869929691 15:-0.7962043875 16:-0.6306095382 17:-0.7962043875 
0.004280896817584065 0.03595171695144808 1.0 1.0 0.0 0.0 0:-0.7962345392 1:0.5288348134 2:-0.7962058822 3:0.6491613366 4:-0.7961837236 5:0.617733155 6:-0.7962066203 7:0.905531423 8:-0.7962039571 9:0.8263766943 10:-0.7962009979 11:0.6160780079 12:-0.6761509915 13:0.6446160266 14:-0.7869362458 15:-0.7962043875 16:-0.630658767 17:-0.7962043875 
1.0 1.0 0.0 1.0 1.0 1.0 0:-0.7966324368 1:-0.328867382 2:-0.8054037671 3:-0.1607021444 4:-0.7689179399 5:-0.3977516477 6:-0.7947547411 7:0.1035546816 8:-0.7766115628 9:-0.2737943441 10:-0.7946027179 11:0.0579765898 12:-0.6584512027 13:-0.1847123611 14:-0.7687383293 15:-1.030248E-4 16:-0.7715811622 17:-0.2565397002 
0.0 0.0 1.0 0.0 0.0 0.0 0:-0.7961953118 1:0.6222633424 2:-0.7961531414 3:0.3858044092 4:-0.7961974129 5:0.6491613366 6:-0.7962135474 7:0.3966307673 8:-0.7962126059 9:0.8334169019 10:-0.7961968686 11:0.475819259 12:-0.6801319704 13:-0.7962043875 14:-0.7822686802 15:-0.7962043875 16:-0.6281655048 17:0.5767437269 
0.0 0.0 0.0 0.7537333420508339 0.0 0.0 0:-0.796226392 1:0.6500033393 2:-0.796221894 3:0.5835883234 4:-0.7961883646 5:0.6320411454 6:-0.7962064589 7:0.9154723731 8:-0.7962045489 9:0.9154723731 10:-0.7962002985 11:0.9154723731 12:-0.6767394576 13:-0.7962043875 14:-0.7858799091 15:-0.7962043875 16:-0.6302959759 17:0.0121649357 
0.07155666441722282 0.08976168399532877 1.0 1.0 0.0 0.0 0:-0.79622844 1:0.646467513 2:-0.7962383905 3:0.5376288815 4:-0.796167603 5:0.6229197824 6:-0.7962069431 7:0.8995717874 8:-0.7962105748 9:0.9174617946 10:-0.7962043875 11:0.9026930391 12:-0.6767695204 13:-0.7962043875 14:-0.7859077382 15:-0.7962043875 16:-0.6302726154 17:0.617733155 
0.0 0.0 0.20101645582988484 0.0 0.0 0.0 0:-0.7961571174 1:0.345445464 2:-0.7962086314 3:0.6479826791 4:-0.7962235413 5:0.617733155 6:-0.7962086469 7:0.9250183567 8:-0.7961879395 9:0.4617601746 10:-0.7962041464 11:0.6906583301 12:-0.673784181 13:-0.7962043875 14:-0.7881904232 15:-0.7962043875 16:-0.632335108 17:0.6424284503 
0.0 0.0 0.0 1.0 0.0 0.0 0:-0.796235995 1:0.6467796132 2:-0.7962048255 3:0.6303233327 4:-0.796202268 5:0.6074239911 6:-0.7961679362 7:0.8842640578 8:-0.7961973394 9:0.9154723731 10:-0.7962255858 11:0.8749214566 12:-0.6765077197 13:-0.7962043875 14:-0.7870870159 15:-0.026737337 16:-0.6303925909 17:-0.5946737036 
0.08174479549598057 0.06340152868098956 1.0 0.1817902933980967 0.05050518850015895 0.4429890655261804 0:-0.8001961518 1:0.3910106154 2:-0.7976293848 3:0.5485310503 4:-0.7928021304 5:0.4337614511 6:-0.7962672086 7:0.1582778831 8:-0.7961846656 9:0.4323431447 10:-0.796157633 11:-0.4344872581 12:-0.686095354 13:0.3642185752 14:-0.778461305 15:0.2947790408 16:-0.6245909794 17:0.454943611 
0.0 0.0 0.14938838585849695 1.0 0.0 0.0 0:-0.7962392554 1:0.4800744927 2:-0.7962141522 3:0.6399050565 4:-0.7961413788 5:0.2087435194 6:-0.7962074274 7:0.8644573943 8:-0.7962114895 9:0.9174617946 10:-0.7962013208 11:0.7409227749 12:-0.6761010541 13:0.1921623953 14:-0.7840388461 15:-0.7962043875 16:-0.6308827098 17:-0.7962043875 
0.0 0.0 0.0 0.0 0.0 0.06264550299094711 0:-0.796150245 1:0.1231896939 2:-0.7962195348 3:0.6128702569 4:-0.7962354306 5:0.5835883234 6:-0.7962069028 7:0.9174617946 8:-0.7961481637 9:0.4448469856 10:-0.7962032846 11:0.7954638224 12:-0.7114670152 13:0.6505085826 14:-0.8041302508 15:-0.7962043875 16:-0.6100305983 17:-0.7962043875 
0.0 0.0 0.0 0.20486824247918603 0.0 0.0 0:-0.7962040777 1:0.6044929366 2:-0.796253094 3:0.2785803832 4:-0.7961814112 5:0.5683002904 6:-0.7962031401 7:0.7368391563 8:-0.7961898068 9:0.435671842 10:-0.7962099315 11:-0.4804931693 12:-0.6806883718 13:-0.7962043875 14:-0.7974813909 15:-0.7962043875 16:-0.6272118722 17:-0.7962043875 
0.0 0.0 1.0 0.0 0.0 0.0 0:-0.7961686171 1:0.4693738818 2:-0.7962117136 3:0.646467513 4:-0.7962221807 5:0.6338521188 6:-0.7962034594 7:0.7601837772 8:-0.7962017243 9:0.9183145293 10:-0.7962059613 11:0.5348838043 12:-0.6738055288 13:-0.7962043875 14:-0.7882074904 15:-0.7962043875 16:-0.6323183198 17:0.3591954734 
0.0 0.0 1.0 1.0 0.0 0.0 0:-0.7962285624 1:0.6491613366 2:-0.7962155918 3:0.6222633424 4:-0.7962630013 5:0.6320411454 6:-0.7961941008 7:0.9141271519 8:-0.7962213713 9:0.9052253002 10:-0.796209638 11:0.9165306485 12:-0.6775542753 13:-0.7962043875 14:-0.7851261456 15:-0.7962043875 16:-0.629760771 17:-0.7962043875 
0.0 0.0 0.0 0.21336518027692988 0.0 0.0 0:-0.7962448058 1:0.4470359137 2:-0.7961820213 3:0.562073192 4:-0.7960214535 5:-0.5026978332 6:-0.7962019766 7:0.8633708474 8:-0.7962037446 9:0.8303850916 10:-0.7962045483 11:0.9114415995 12:-0.6867482483 13:-0.3214982688 14:-0.7816016417 15:-0.7962043875 16:-0.62383797 17:-0.7531584685 
0.0 0.0 1.0 1.0 0.0 0.0 0:-0.7962410916 1:0.5327549772 2:-0.7962388861 3:0.626460245 4:-0.7961899506 5:0.6024350357 6:-0.7962173809 7:0.8797331609 8:-0.796229621 9:0.8842640578 10:-0.7961900222 11:0.8698293803 12:-0.67653942 13:0.317065193 14:-0.7856739248 15:-0.7962043875 16:-0.6304544643 17:0.5767437269 
0.0 0.0 1.0 0.0 0.0 0.0 0:-0.7962933876 1:0.6270474055 2:-0.7962147969 3:0.6399050565 4:-0.7962959485 5:0.5834835177 6:-0.7961756434 7:0.7527569969 8:-0.796265615 9:0.7775024073 10:-0.7961792886 11:0.4290073186 12:-0.6818357096 13:-0.7962043875 14:-0.7990143334 15:-0.7962043875 16:-0.6264517468 17:-0.7962043875 
0.00868223951003963 0.0070983069564160475 0.9359862501156017 0.0 0.0 0.14910050562608132 0:-0.7961421012 1:0.0501422548 2:-0.7962081295 3:0.6446160266 4:-0.7962305279 5:0.6222633424 6:-0.7962048045 7:0.8466670073 8:-0.7961754417 9:0.9174617946 10:-0.7962065127 11:0.8995717874 12:-0.7115456497 13:0.3591954734 14:-0.8042208376 15:-0.7962043875 16:-0.6099984187 17:-0.7962043875 
0.0 0.0 1.0 0.0 0.0 0.0 0:-0.7961525824 1:0.2087435194 2:-0.7962088165 3:0.6491613366 4:-0.796225864 5:0.6338521188 6:-0.7962038898 7:0.8114692521 8:-0.7962076157 9:0.8190605826 10:-0.7962064589 11:0.918030276 12:-0.7116969331 13:0.4800744927 14:-0.8041548014 15:-0.7962043875 16:-0.6099267875 17:-0.7962043875 
0.0 0.0 1.0 1.0 0.0 0.0 0:-0.796224969 1:0.6318179035 2:-0.7962108945 3:0.6377468212 4:-0.7960388886 5:0.6036346886 6:-0.7964785931 7:0.79701032 8:-0.7963203862 9:0.7687311048 10:-0.7961072736 11:0.6411198 12:-0.6870866505 13:-0.1908261855 14:-0.7840812986 15:0.5983118563 16:-0.6234503431 17:-0.7531584685 
0.0 0.0 0.0 0.5330674008812041 0.0 0.0 0:-0.7962359089 1:0.5542491842 2:-0.7962094445 3:0.6338521188 4:-0.7961853403 5:0.6370461602 6:-0.7962021009 7:0.8797331609 8:-0.7962107362 9:0.9026930391 10:-0.7962033653 11:0.4290073186 12:-0.6760029845 13:-0.7962043875 14:-0.7870082932 15:-0.7962043875 16:-0.6307621629 17:-0.7962043875 
0.0 0.0 1.0 1.0 0.6335186604029784 0.3575044495665551 0:-0.7951500897 1:0.5408379053 2:-0.7955077654 3:0.4726413841 4:-0.7966099157 5:0.5369532156 6:-0.7964328661 7:0.8236778576 8:-0.795265817 9:0.8680777416 10:-0.7959798866 11:0.6303348114 12:-0.6769111745 13:0.3341208941 14:-0.7992296217 15:0.2449877856 16:-0.6299527791 17:0.4889326199 
0.0 0.0 1.0 0.0 0.0 0.0 0:-0.7961845258 1:0.5385464691 2:-0.7962144795 3:0.5776238168 4:-0.7961365383 5:0.3267039693 6:-0.7962052621 7:0.7793468828 8:-0.796162015 9:0.7793468828 10:-0.7962029206 11:0.6966679728 12:-0.7127029444 13:-0.7962043875 14:-0.8042436708 15:-0.7962043875 16:-0.6094778247 17:0.5211063077 
0.0 0.0 0.8513901493726855 0.0 0.0 0.0 0:-0.7961389578 1:0.1053009416 2:-0.7962148048 3:0.6338521188 4:-0.7962836103 5:0.1581992637 6:-0.7962041464 7:0.8633708474 8:-0.7962060484 9:0.8152649803 10:-0.7962049233 11:0.9254429374 12:-0.7128856294 13:-0.7962043875 14:-0.8042753013 15:-0.7962043875 16:-0.6093973392 17:0.6303233327 
0.0 0.0 0.0 0.03235443299618786 0.0 0.0 0:-0.7962618375 1:0.1581992637 2:-0.79622055 3:0.6338521188 4:-0.7960125269 5:-0.5256704485 6:-0.796203984 7:0.9174617946 8:-0.7962124041 9:0.8749214566 10:-0.7962034729 11:0.3800979899 12:-0.6869921057 13:-0.7962043875 14:-0.781427535 15:-0.7962043875 16:-0.6236981863 17:-0.7962043875 
0.0 0.0 1.0 1.0 0.0 0.0 0:-0.7962394671 1:0.6399050565 2:-0.7962363208 3:0.6076752665 4:-0.7961748694 5:0.6350724114 6:-0.7962076557 7:0.9250183567 8:-0.7961906183 9:0.869137747 10:-0.7962013872 11:0.9254429374 12:-0.6774690472 13:-0.7962043875 14:-0.7853603939 15:-0.7962043875 16:-0.6298061726 17:-0.7962043875 
0.0 0.0 0.0 1.0 0.0 0.0 0:-0.7962105308 1:0.6424284503 2:-0.7962302465 3:0.562073192 4:-0.796275096 5:0.2087435194 6:-0.7962054367 7:0.9123469682 8:-0.7962014284 9:0.8190605826 10:-0.7962047103 11:0.2213739184 12:-0.6862426948 13:-0.7962043875 14:-0.7814281671 15:-0.7962043875 16:-0.624174848 17:-0.7962043875 
0.0 0.0 0.0 1.0 0.0 0.0 0:-0.7961797504 1:0.6128702569 2:-0.796203044 3:0.6491613366 4:-0.7962026624 5:0.6399050565 6:-0.7962055577 7:0.8698293803 8:-0.7962014015 9:0.9026930391 10:-0.7962053156 11:0.4448469856 12:-0.674333555 13:-0.7962043875 14:-0.7880787656 15:-0.7962043875 16:-0.6319315847 17:-0.7962043875 
0.20076639375941188 0.010329910888273258 0.09946002528922045 0.19437571352808458 0.40744663498977796 0.3171424479014267 0:-0.796102443 1:-0.3437883439 2:-0.7961248533 3:-0.1486168469 4:-0.7962635324 5:0.3726491528 6:-0.7962239986 7:-0.2757639213 8:-0.796173451 9:-0.5956129741 10:-0.796199209 11:-0.2311224742 12:-0.6861587585 13:-0.7962043875 14:-0.7815050629 15:-0.7962043875 16:-0.6242219454 17:-0.7962043875 
0.0 0.0 1.0 0.0 0.0 0.0 0:-0.7961730665 1:0.5197197037 2:-0.7962196177 3:0.6338521188 4:-0.7962409549 5:0.4904608126 6:-0.796200021 7:0.4301974979 8:-0.7962103881 9:0.701837994 10:-0.796208379 11:-0.0153445404 12:-0.6738059744 13:-0.7962043875 14:-0.7881562258 15:-0.7962043875 16:-0.6323205062 17:0.6076752665 
0.0 0.0 0.0 0.991028841565401 0.0 0.0 0:-0.7962462741 1:0.3314012905 2:-0.7962191564 3:0.6370461602 4:-0.7961926409 5:0.6446160266 6:-0.7962105488 7:0.6555586851 8:-0.7962211034 9:0.7234101318 10:-0.7961999942 11:0.8375337702 12:-0.6761135957 13:0.4800744927 14:-0.7837960968 15:-0.7962043875 16:-0.6308916471 17:-0.7962043875 
0.0 0.0 1.0 0.25600487862232385 0.08047379585912608 0.0 0:-0.7962969121 1:0.5667360215 2:-0.7961750165 3:0.5692952327 4:-0.7967841121 5:0.4611592331 6:-0.7964046529 7:0.1516797371 8:-0.7962119249 9:0.6165627286 10:-0.7962110748 11:0.7908697211 12:-0.6279146599 13:0.3395508378 14:-0.7888715379 15:0.272176761 16:-0.6798952449 17:0.4664691366 
0.09286518244464434 0.237576303278404 0.0 0.0 0.1828634371928963 0.0 0:-0.79609608 1:-0.4568915396 2:-0.7961221131 3:-0.026737337 4:-0.7964038877 5:-0.5256704485 6:-0.7962255051 7:-0.1432374986 8:-0.7961603231 9:-0.6640324432 10:-0.7961969493 11:-0.2311224742 12:-0.6862100986 13:-0.7962043875 14:-0.7815322281 15:-0.7962043875 16:-0.6241868072 17:-0.7962043875 
0.0 0.0 1.0 0.0 0.0 0.0 0:-0.79620845 1:0.6338521188 2:-0.7961952805 3:0.6399050565 4:-0.7962096899 5:0.6505085826 6:-0.7962093374 7:0.5348838043 8:-0.7961990611 9:0.9123469682 10:-0.7962016167 11:0.6991966657 12:-0.6861989444 13:-0.7962043875 14:-0.7815112518 15:-0.7962043875 16:-0.6241957025 17:-0.7962043875 
0.0 0.0 1.0 0.2865869414899455 0.0 0.0 0:-0.7962555641 1:0.562073192 2:-0.7962376011 3:0.5835883234 4:-0.7961241577 5:0.6240121629 6:-0.7962202324 7:0.9080866863 8:-0.7961561803 9:0.918030276 10:-0.7962051408 11:0.9123469682 12:-0.6766916518 13:-0.4797667421 14:-0.7858224368 15:-0.7962043875 16:-0.6303342757 17:0.4800744927 
0.0 0.011896792008239244 1.0 0.07013311276977295 0.0 0.0 0:-0.7961419602 1:0.5189442534 2:-0.7958585715 3:0.5471102021 4:-0.7958329039 5:0.3857416329 6:-0.7961458282 7:0.8778468987 8:-0.7957157148 9:0.7160141267 10:-0.7961493107 11:0.5692929219 12:-0.6805697388 13:0.5481626074 14:-0.7999500605 15:0.6388189172 16:-0.6273509914 17:0.4778065866 
0.04963531640760452 0.0702123159222413 8.769880318480482E-4 0.2112663975921966 0.0 0.0 0:-0.7961757995 1:0.5695717027 2:-0.7962479071 3:0.4234597531 4:-0.7962308727 5:0.5962917065 6:-0.7962003927 7:0.6160780079 8:-0.7961680169 9:-0.3434543867 10:-0.7962128345 11:-0.5496889971 12:-0.6794172018 13:-0.7962043875 14:-0.7975263988 15:-0.7962043875 16:-0.6280882169 17:0.6338521188 
0.035549451459172904 0.02528015779389759 0.968284986327516 0.28055358387371276 0.0 0.0 0:-0.7962232357 1:0.6505085826 2:-0.7962043071 3:0.6338521188 4:-0.7962342766 5:0.6222633424 6:-0.7962934579 7:0.4909480909 8:-0.7962236489 9:0.7506876029 10:-0.7961582786 11:0.8528756775 12:-0.6766834959 13:-0.7962043875 14:-0.7865294571 15:0.3726491528 16:-0.6302989474 17:0.6303233327 
0.0 0.0 1.0 1.0 0.0 0.0 0:-0.7961605513 1:0.3986592196 2:-0.7962197354 3:0.6222633424 4:-0.7962518729 5:0.4693738818 6:-0.796206311 7:0.8885137382 8:-0.7961972049 9:0.7870512413 10:-0.7962062841 11:0.3117209206 12:-0.6740836731 13:0.602148847 14:-0.7880892368 15:-0.7962043875 16:-0.6321167469 17:-0.7962043875 
0.0 0.01252786546462835 1.0 0.0 0.0 0.0 0:-0.7962089761 1:0.6383829044 2:-0.7961509212 3:0.6128702569 4:-0.7961813636 5:0.5868743049 6:-0.7963224441 7:0.6980922845 8:-0.79619894 9:0.8390918103 10:-0.7961345112 11:0.6160780079 12:-0.6859522425 13:0.0871609532 14:-0.7827126917 15:0.6506770041 16:-0.6242587927 17:0.6370461602 
0.0 0.0 0.44033141855991825 0.0 0.8458488922136511 1.0 0:-0.8008331101 1:0.0686241432 2:-0.8005803443 3:0.4247728782 4:-0.7830344632 5:0.0337538277 6:-0.7947175817 7:0.6530821711 8:-0.7873762406 9:0.413780964 10:-0.7985342219 11:0.4686663504 12:-0.6775184703 13:0.1421349046 14:-0.7768207174 15:0.5236084736 16:-0.6332201584 17:0.2431593564 
0.0 0.0 0.0 1.0 0.0 0.0 0:-0.796187246 1:0.6222633424 2:-0.7961394235 3:0.3726491528 4:-0.7963033611 5:0.2410897492 6:-0.7962079385 7:0.7409227749 8:-0.7962180803 9:0.7694103682 10:-0.7962000699 11:0.8334169019 12:-0.6795820231 13:-0.7962043875 14:-0.7821456096 15:-0.7962043875 16:-0.6285570666 17:-0.7962043875 
0.0 0.0 1.0 1.0 0.0740381835418354 0.2866823995835481 0:-0.7962316562 1:0.5233710327 2:-0.7961988104 3:0.6248422674 4:-0.7959251062 5:0.4955199044 6:-0.7961495895 7:0.8927324697 8:-0.7959508691 9:0.816842824 10:-0.7962186856 11:0.8263766943 12:-0.6836956434 13:0.4721478539 14:-0.7817701961 15:-0.3214982688 16:-0.6258294715 17:0.5596476519 
0.0 0.0 0.0 0.04558445497725145 0.4311214614971098 0.2832035563073147 0:-0.7960813163 1:-0.3662019609 2:-0.7961264032 3:-0.0665283232 4:-0.7964311677 5:-0.7086689522 6:-0.7962094181 7:0.6881036688 8:-0.796189538 9:0.0051704116 10:-0.79620276 11:0.3117209206 12:-0.6860825273 13:-0.7962043875 14:-0.7814930609 15:-0.7962043875 16:-0.6242718054 17:-0.7962043875 
0.0 0.0 0.0 1.0 0.0 0.0 0:-0.7961796703 1:0.5695717027 2:-0.7961496601 3:0.3986592196 4:-0.796281866 5:0.1921623953 6:-0.7962092701 7:0.6651317182 8:-0.7962058536 9:0.8263766943 10:-0.7962017646 11:0.6532551385 12:-0.6794172009 13:-0.7962043875 14:-0.7820765377 15:-0.7962043875 16:-0.628677582 17:-0.7962043875 
0.0 0.0 1.0 0.0 0.0 0.0 0:-0.7961651007 1:0.4354017671 2:-0.7962034024 3:0.6500033393 4:-0.7962199321 5:0.6303233327 6:-0.7962019529 7:0.6532551385 8:-0.7962092029 9:0.8644573943 10:-0.7962072525 11:0.1259182769 12:-0.674035652 13:0.41121163 14:-0.7881567846 15:-0.7962043875 16:-0.6321491883 17:-0.7962043875 
0.0 0.0 1.0 0.0 0.05597701250129118 0.0 0:-0.7969210946 1:0.4427553341 2:-0.7963536021 3:0.4892410237 4:-0.795775088 5:0.3813553814 6:-0.7959430005 7:0.7246368867 8:-0.7974858068 9:0.8039323779 10:-0.7962349206 11:0.5900170568 12:-0.7181274918 13:0.3128073355 14:-0.8066720701 15:0.611468379 16:-0.6074330176 17:0.5470868098 
0.0 0.0 0.5615519935772117 1.0 0.0 0.0 0:-0.7962158658 1:0.6386563908 2:-0.7962580796 3:0.6222633424 4:-0.7960689283 5:0.5802368879 6:-0.7962051139 7:0.9166091352 8:-0.7959837426 9:0.6018327293 10:-0.7962586072 11:0.720591039 12:-0.6807570385 13:0.4234597531 14:-0.7820045775 15:-0.5486689752 16:-0.627762079 17:0.1753132669 
0.08766560424397243 0.050982552349042864 0.26679783861456274 0.2715753748834303 0.1456905466349465 0.4819307414654138 0:-0.7959163431 1:-0.4567466071 2:-0.7961854874 3:0.5484295074 4:-0.7965504552 5:-0.3780415995 6:-0.7962134409 7:0.6933431354 8:-0.7963466914 9:-0.5033504714 10:-0.7961960567 11:0.8042933241 12:-0.6831035535 13:0.5499992366 14:-0.7996298583 15:-0.7962043875 16:-0.6256197149 17:0.4501864951 
0.0 0.0 0.5854219280472778 0.7655654037062993 0.0 0.0 0:-0.7962401924 1:0.546100718 2:-0.7962134345 3:0.6446160266 4:-0.7961757694 5:0.6105178512 6:-0.7962288409 7:0.9123469682 8:-0.7962037957 9:0.8995717874 10:-0.7961921205 11:0.9154723731 12:-0.6759473693 13:-0.7962043875 14:-0.7874075093 15:-0.3887295645 16:-0.6307814457 17:-0.7962043875 
0.0 0.0 0.0 0.2699435624257949 0.0 0.0 0:-0.796210272 1:0.6500033393 2:-0.7961393055 3:0.1921623953 4:-0.7961852203 5:0.6370461602 6:-0.7962170584 7:0.0054131149 8:-0.7962125044 9:0.8894201567 10:-0.7961965921 11:0.3300178128 12:-0.6801901632 13:-0.7962043875 14:-0.7822363488 15:-0.7962043875 16:-0.6281280012 17:-0.7962043875 
0.0 0.0 0.0 1.0 0.0 0.0 0:-0.7962204882 1:0.6446160266 2:-0.7962207634 3:0.6222633424 4:-0.7962192908 5:0.6399050565 6:-0.7962100637 7:0.9140516089 8:-0.7962015898 9:0.9183145293 10:-0.7962012132 11:0.6881036688 12:-0.677338585 13:-0.7962043875 14:-0.7852133895 15:-0.7962043875 16:-0.6299089092 17:-0.7962043875 
0.0 0.0 0.0 1.0 0.0 0.0 0:-0.7962020364 1:0.6505085826 2:-0.7961496067 3:0.2087435194 4:-0.7962322443 5:0.617733155 6:-0.796192134 7:0.7308902552 8:-0.7962186856 9:0.6411198 10:-0.7962072525 11:0.7308902552 12:-0.6807107278 13:-0.7962043875 14:-0.7824774104 15:-0.1277947501 16:-0.6277501247 17:-0.7962043875 
0.0 0.0 1.0 0.0 0.0 0.0 0:-0.7962321639 1:0.6353031607 2:-0.7962217895 3:0.6128702569 4:-0.7961931805 5:0.6146071852 6:-0.7962026195 7:0.9250183567 8:-0.7962254967 9:0.8894201567 10:-0.7962072807 11:0.9254429374 12:-0.6767676881 13:-0.7962043875 14:-0.785874962 15:-0.7962043875 16:-0.6302760036 17:0.4693738818 
1.0 1.0 0.24816940955237352 0.5196269033713049 1.0 1.0 0:-0.7960809655 1:-0.5716763349 2:-0.7961223918 3:-0.0867449863 4:-0.7964176557 5:-0.6405520999 6:-0.7962241573 7:-0.2757446785 8:-0.7961688126 9:-0.709071248 10:-0.796198253 11:-0.1868646476 12:-0.6859910745 13:-0.7962043875 14:-0.7814839357 15:-0.7962043875 16:-0.6243311517 17:-0.7962043875 
0.0 0.0 0.0 0.007073536950565581 0.0 0.0 0:-0.79609842 1:0.5866774441 2:-0.7960885811 3:0.5339834261 4:-0.796068585 5:0.6049471289 6:-0.7969373823 7:1.0 8:-0.7934567904 9:0.8190517969 10:-0.7954625019 11:0.978719918 12:-0.6648669962 13:0.0744785674 14:-0.7903634534 15:0.3523977152 16:-0.6400212922 17:0.0996514764 
0.018626161809016592 0.03404192591689891 0.0 1.0 0.0 0.0 0:-0.7962009014 1:0.646467513 2:-0.7961555412 3:0.41121163 4:-0.7962222145 5:0.6167103512 6:-0.7961919309 7:0.8847682721 8:-0.7962342565 9:0.3811216269 10:-0.7962115936 11:0.7537843787 12:-0.6808855605 13:-0.7962043875 14:-0.7826824969 15:0.5005313812 16:-0.6276138781 17:-0.7962043875 
0.0 0.0 0.0 1.0 0.0 0.0 0:-0.7962424437 1:0.4693738818 2:-0.7962118267 3:0.6370461602 4:-0.7962005463 5:0.6446160266 6:-0.7962184782 7:0.9141271519 8:-0.7962307472 9:0.5507390456 10:-0.7961644729 11:0.844407305 12:-0.67576653 13:-0.7962043875 14:-0.7844662609 15:0.3986592196 16:-0.6310955774 17:-0.7962043875 
0.026807240560307463 0.04472061852885289 0.13005283400000792 0.25796509747652296 0.0 0.0 0:-0.7962441645 1:0.4354017671 2:-0.7962114753 3:0.646467513 4:-0.7961967672 5:0.6446160266 6:-0.7962336293 7:0.0663490764 8:-0.7962196137 9:0.9183145293 10:-0.7961533825 11:-0.4576983927 12:-0.6756073016 13:-0.7962043875 14:-0.7849176939 15:0.0501422548 16:-0.6311803475 17:-0.7962043875 
0.0 0.0 0.04021423122700375 0.010024920663836954 0.0 0.0 0:-0.7961828659 1:0.5376288815 2:-0.7962224124 3:0.562073192 4:-0.7961757909 5:0.6076752665 6:-0.7962048965 7:0.8978839499 8:-0.7962077093 9:0.9084742282 10:-0.796211031 11:-0.4577238096 12:-0.6807448614 13:-0.7962043875 14:-0.7974930499 15:-0.7962043875 16:-0.627173282 17:-0.7962043875 
0.0 0.34139402191139945 0.0 0.0 0.0 0.0 0:-0.7960881453 1:-0.3887295645 2:-0.7961158841 3:-0.0867449863 4:-0.7963157521 5:-0.1277947501 6:-0.7962229226 7:-0.1869311325 8:-0.7961694696 9:-0.7313042005 10:-0.7961991014 11:-0.3889805413 12:-0.6861586748 13:-0.7962043875 14:-0.7815545649 15:-0.7962043875 16:-0.6242177803 17:-0.7962043875 
0.0 0.0 0.4800079888380925 0.08547601036575134 0.768956517407299 1.0 0:-0.796384814 1:0.0997541293 2:-0.7965148966 3:0.3508158734 4:-0.794689904 5:0.1101455517 6:-0.7956122623 7:0.7302885528 8:-0.7956696287 9:0.2455485459 10:-0.7957312314 11:0.7326706894 12:-0.6179929378 13:0.1884889877 14:-0.7742569891 15:0.5359657767 16:-0.698861861 17:-0.0529066204 
0.0 0.0 0.0 0.0 0.0 0.1317629477756796 0:-0.7961314695 1:-0.0665283232 2:-0.7962081427 3:0.6505085826 4:-0.7963126785 5:-0.1071689251 6:-0.7962051811 7:0.8263766943 8:-0.7961396629 9:0.5490397467 10:-0.7962024775 11:0.7409227749 12:-0.7126390335 13:-0.7962043875 14:-0.8042542411 15:-0.7962043875 16:-0.609507057 17:0.6222633424 
0.0 0.0 1.0 1.0 0.0 0.0 0:-0.7962494228 1:0.6500033393 2:-0.7962099977 3:0.6303233327 4:-0.7961634751 5:0.6296852293 6:-0.7962052215 7:0.8995717874 8:-0.7961811447 9:0.8924818198 10:-0.7962039033 11:0.9080866863 12:-0.6776720327 13:-0.7962043875 14:-0.7851321218 15:-0.7962043875 16:-0.6296766067 17:-0.7962043875 
0.0 0.0 0.5898824761970952 0.0 0.0 0.0 0:-0.7961274627 1:0.0312713759 2:-0.7961977688 3:0.6303233327 4:-0.7963011147 5:0.1231896939 6:-0.7962052349 7:0.7506876029 8:-0.7961811985 9:0.9183145293 10:-0.7962052753 11:0.9140516089 12:-0.7122851242 13:-0.7962043875 14:-0.8042373155 15:-0.7962043875 16:-0.6096646642 17:-0.7962043875 
0.0 0.0 0.0 0.0 0.0 0.046834017695776504 0:-0.7960961829 1:-0.5256704485 2:-0.7961293988 3:-0.007172783 4:-0.7962981132 5:0.1231896939 6:-0.7962100099 7:0.6651317182 8:-0.7961903988 9:-0.0575145254 10:-0.7962023834 11:0.2581452388 12:-0.6861668328 13:-0.7962043875 14:-0.7814983172 15:-0.7962043875 16:-0.6242173473 17:-0.7962043875 
0.0 0.0 1.0 0.0 0.0 0.0 0:-0.7961574648 1:0.5077778749 2:-0.7961598648 3:0.5713619709 4:-0.7958080467 5:0.3829552493 6:-0.7961834314 7:0.7907346281 8:-0.7959935347 9:0.7755820826 10:-0.7961564897 11:0.5766079213 12:-0.6857743395 13:0.3000998329 14:-0.7816768794 15:-0.3214982688 16:-0.6244634322 17:0.212093357 
0.0 0.0 0.0 0.42922620887584345 0.0 0.0 0:-0.7962120335 1:0.6505085826 2:-0.7962418345 3:0.4470359137 4:-0.7962634292 5:0.4583604969 6:-0.7961976353 7:0.7409227749 8:-0.7962038495 9:0.8797331609 10:-0.7962063244 11:0.0257359773 12:-0.6864690951 13:-0.7962043875 14:-0.7814417051 15:-0.7962043875 16:-0.6240291855 17:0.4693738818 
0.04536641759876465 0.041723722796018534 1.0 1.0 0.0 0.0 0:-0.7962974214 1:0.5231819383 2:-0.7960828771 3:0.5859087807 4:-0.7960867532 5:0.4291216515 6:-0.7964437827 7:0.9134872415 8:-0.7951205856 9:0.8019195584 10:-0.7962826705 11:0.8472197318 12:-0.6713772367 13:0.3990975552 14:-0.7823025232 15:0.6124445576 16:-0.6347050299 17:0.4265568221 
0.0 0.0 0.6819562428397593 0.6517067481255829 0.0 0.0 0:-0.796172339 1:0.5288348134 2:-0.7962077295 3:0.6505085826 4:-0.7962303606 5:0.6076752665 6:-0.7962044279 7:0.8114692521 8:-0.7962073198 9:0.8644573943 10:-0.7962064993 11:0.363338381 12:-0.6741188794 13:0.0312713759 14:-0.7881824561 15:-0.7962043875 16:-0.6320859709 17:-0.7962043875 
0.0 0.0 0.0 1.0 0.0 0.0 0:-0.7961910563 1:0.646467513 2:-0.7962063839 3:0.6370461602 4:-0.7962106486 5:0.6479826791 6:-0.7962009845 7:0.6532551385 8:-0.7962128345 9:0.8961679462 10:-0.7962049255 11:0.0257359773 12:-0.673573974 13:-0.7962043875 14:-0.7881606562 15:-0.7962043875 16:-0.6324938043 17:-0.7962043875 
0.0 0.0 0.0 1.0 0.0 0.0 0:-0.7962270407 1:0.5962917065 2:-0.7962056886 3:0.6505085826 4:-0.7962162447 5:0.6303233327 6:-0.7962032846 7:0.9183145293 8:-0.7962119737 9:0.8961679462 10:-0.7962020202 11:0.5629483092 12:-0.6762958649 13:-0.7962043875 14:-0.7869323585 15:-0.7962043875 16:-0.6305540023 17:-0.7962043875 
0.0 0.0 0.0 0.05085831099791845 0.0 0.0 0:-0.7962125972 1:0.6479826791 2:-0.7961960849 3:0.626460245 4:-0.796044775 5:-0.1486168469 6:-0.7962027331 7:0.8961679462 8:-0.7962077098 9:0.9166091352 10:-0.7962026255 11:0.9183145293 12:-0.6864703298 13:-0.5026978332 14:-0.7816870617 15:-0.7962043875 16:-0.6240075393 17:0.4354017671 
0.03738372099500296 0.04494156787235856 1.0 0.6924644878198344 0.0 0.0 0:-0.7962426086 1:0.5690560063 2:-0.7961971692 3:0.6505085826 4:-0.7961512099 5:0.5939335601 6:-0.7963479601 7:0.9024310204 8:-0.7962469993 9:0.8263766943 10:-0.7961693081 11:0.8114692521 12:-0.6760922789 13:0.6506770041 14:-0.7878694353 15:-0.1071689251 16:-0.6306541822 17:-0.7962043875 
0.0 0.0 0.015739361992187263 0.0 0.0 0.0 0:-0.7961886791 1:0.5767437269 2:-0.7962657705 3:0.0871609532 4:-0.7962165886 5:0.6222633424 6:-0.7962015763 7:0.6031742326 8:-0.796194703 9:0.7409227749 10:-0.7962124579 11:-0.6640324432 12:-0.6804810514 13:-0.5026978332 14:-0.7974431563 15:-0.7962043875 16:-0.6273534459 17:-0.7962043875 
0.0 0.0 1.0 1.0 0.0 0.0 0:-0.7962203072 1:0.6399050565 2:-0.796216313 3:0.626460245 4:-0.796250777 5:0.6308522988 6:-0.7962090415 7:0.9123469682 8:-0.7961856642 9:0.8698293803 10:-0.796202343 11:0.9154723731 12:-0.6775719297 13:-0.7962043875 14:-0.7851427876 15:-0.7962043875 16:-0.6297471155 17:-0.7962043875 
0.06109009039348876 0.04081345784366655 0.0 0.0 0.03906545088971899 0.0 0:-0.7961968456 1:0.6446160266 2:-0.796243984 3:0.3858044092 4:-0.7961182656 5:0.2087435194 6:-0.7962043741 7:0.8749214566 8:-0.7961747422 9:-0.1215911024 10:-0.7962106286 11:-0.5956129741 12:-0.6803546225 13:0.5376288815 14:-0.7974800558 15:-0.7962043875 16:-0.6274405422 17:-0.7962043875 
0.0 0.0 0.0 0.04977550798939775 0.0 0.0 0:-0.7960685164 1:-0.6176401431 2:-0.796122302 3:-0.1277947501 4:-0.7963993798 5:-0.5486689752 6:-0.796219802 7:0.4448469856 8:-0.7961715679 9:-0.4806796039 10:-0.7961993166 11:0.0461301373 12:-0.685987114 13:-0.7962043875 14:-0.7815329422 15:-0.7962043875 16:-0.6243295049 17:-0.7962043875 
0.024270470180290046 0.03694592154489286 1.0 1.0 0.0 0.0 0:-0.7962209368 1:0.646467513 2:-0.796211481 3:0.6479826791 4:-0.7962397072 5:0.6428715277 6:-0.7962089877 7:0.9140516089 8:-0.7962141258 9:0.9140516089 10:-0.7961998143 11:0.9140516089 12:-0.6776404506 13:-0.7962043875 14:-0.7851867478 15:-0.7962043875 16:-0.6296953731 17:-0.7962043875 
0.0 0.0 0.0 0.0 0.6122070023403856 0.0 0:-0.7960887248 1:-0.3437883439 2:-0.7961171542 3:-0.1486168469 4:-0.7963393511 5:-0.3214982688 6:-0.7962179424 7:0.1843093263 8:-0.796180278 9:-0.5497160296 10:-0.796201039 11:0.0054131149 12:-0.6861156057 13:-0.7962043875 14:-0.7815173219 15:-0.7962043875 16:-0.6242484985 17:-0.7962043875 
0.0 0.0 0.07004339475273465 0.5310521342395211 0.0 0.0 0:-0.7961964125 1:0.6491613366 2:-0.7961450412 3:0.1053009416 4:-0.796227581 5:0.6338521188 6:-0.7962014956 7:0.9154723731 8:-0.7962223442 9:0.475819259 10:-0.7962041858 11:0.8995717874 12:-0.6805478898 13:-0.7962043875 14:-0.7823105364 15:-0.7962043875 16:-0.627875574 17:-0.7962043875 
0.0 0.0 1.0 0.0 0.0 0.0 0:-0.7961414496 1:0.1921623953 2:-0.7961972922 3:0.6222633424 4:-0.7962280355 5:0.6222633424 6:-0.7962049659 7:0.7601837772 8:-0.7962406506 9:0.346354144 10:-0.7962067817 11:0.9026930391 12:-0.7126325585 13:-0.7962043875 14:-0.8042376037 15:-0.7962043875 16:-0.6095090118 17:0.4583604969 
0.0 0.0 0.9465674857332808 0.0 0.0 0.0 0:-0.7962438196 1:0.3858044092 2:-0.7962125604 3:0.6399050565 4:-0.7961487891 5:0.4693738818 6:-0.7962195868 7:0.0863891058 8:-0.7961961557 9:0.6287269834 10:-0.7961958867 11:0.9123469682 12:-0.6760463891 13:0.4800744927 14:-0.7836443785 15:-0.7962043875 16:-0.6309520722 17:-0.7962043875 
0.0 0.0 0.0 1.0 0.0 0.0 0:-0.7962186282 1:0.5835883234 2:-0.7962145629 3:0.6479826791 4:-0.79620362 5:0.6446160266 6:-0.7962064858 7:0.9103586019 8:-0.7962011594 9:0.8466670073 10:-0.7962028541 11:0.5900170568 12:-0.6743925042 13:-0.7962043875 14:-0.7880664858 15:-0.7962043875 16:-0.6318884988 17:-0.7962043875 
0.03990578507755147 0.05220622136547591 0.48019452795361406 0.1819711783047876 0.09299872108034407 0.1549684984097836 0:-0.7961611185 1:0.287526572 2:-0.7962255928 3:0.5542491842 4:-0.7963139678 5:-0.0867449863 6:-0.796202491 7:0.7308902552 8:-0.7962244559 9:0.346354144 10:-0.7962122427 11:-0.6866249214 12:-0.6824995966 13:0.6128702569 14:-0.798910671 15:-0.7962043875 16:-0.6260046937 17:0.4693738818 
-0.0 0.0 0.0 0.0 0.0 1.0 0:-0.792898177 1:-0.5503852783 2:-0.8135523348 3:-0.5868145041 4:-0.785200442 5:-0.5901142297 6:-0.7972600776 7:-0.3757232402 8:-0.7967235299 9:-0.3294247341 10:-0.7983117862 11:-0.1321364304 12:-0.7868050684 13:-0.1097544109 14:-0.987720706 15:0.0453392108 16:-0.8418033936 17:-0.4037362674 
-0.0 1.0 0.0 0.0 0.0 0.0 0:-0.7884787424 1:-0.5627085195 2:-0.8029233884 3:-0.6145009705 4:-0.7819980291 5:-0.5931599976 6:-0.7939011538 7:-0.4127859605 8:-0.7949430054 9:-0.399316342 10:-0.7992787768 11:-0.0885394569 12:-0.8116819955 13:-0.1432568419 14:-0.9895404827 15:0.0514087934 16:-0.8313336927 17:-0.447350706 
-0.0 0.0 0.0 0.0 0.0 1.0 0:-0.792422314 1:-0.558656059 2:-0.8080558212 3:-0.5886274825 4:-0.7898175009 5:-0.6040974445 6:-0.7908997759 7:-0.3675271019 8:-0.7951635873 9:-0.3692465834 10:-0.7982535178 11:-0.0821672944 12:-0.809593484 13:-0.1063564172 14:-0.98876012 15:0.0637276211 16:-0.8357291073 17:-0.443165105 
-0.0 1.0 0.0 0.0 0.0 0.0 0:-0.7904754388 1:-0.5405309118 2:-0.8192501915 3:-0.5976840836 4:-0.7861330655 5:-0.5966635327 6:-0.7960746826 7:-0.3762217352 8:-0.7961066952 9:-0.4249259472 10:-0.798780354 11:-0.1478482436 12:-0.8123099613 13:-0.1755466371 14:-0.9892347818 15:0.0470192267 16:-0.8348412558 17:-0.4464102829 
-0.0 0.0 0.0 0.0 0.0 1.0 0:-0.789220838 1:-0.5065037703 2:-0.8082964217 3:-0.5709520056 4:-0.7899866684 5:-0.5890819872 6:-0.7960029771 7:-0.3369261713 8:-0.7950862057 9:-0.344512818 10:-0.7987551743 11:-0.0224286415 12:-0.8011750293 13:0.0740570278 14:-0.9889133871 15:0.083150024 16:-0.8392875158 17:-0.4605993334 
-0.0 1.0 0.0 0.0 1.0 1.0 0:-0.7981602742 1:-0.5379152731 2:-0.804132722 3:-0.5892278986 4:-0.7827205182 5:-0.5906017624 6:-0.7921644626 7:-0.2945811741 8:-0.7959944628 9:-0.3314132978 10:-0.7965005715 11:-0.1600581917 12:-0.7500333914 13:-0.2395093533 14:-0.9821536123 15:-0.0121006372 16:-0.8418528641 17:-0.4454653802 
-0.33954888223608093 1.0 0.0 0.0 1.0 1.0 0:-0.7938001792 1:-0.5509362707 2:-0.8117820196 3:-0.5456731071 4:-0.7848464857 5:-0.5685175966 6:-0.79644576 7:-0.3234193061 8:-0.7928399019 9:-0.3200171898 10:-0.8008285697 11:-0.1902260703 12:-0.7788548058 13:-0.3048103522 14:-0.9882471202 15:0.0902951159 16:-0.8339526261 17:-0.4580647156 
-0.0 0.0 0.0 0.0 1.0 1.0 0:-0.7893053688 1:-0.5275959803 2:-0.8081062691 3:-0.5811854901 4:-0.7834549161 5:-0.5821722962 6:-0.7948682393 7:-0.3208710933 8:-0.7964062644 9:-0.3418972039 10:-0.7982670887 11:-0.0397191655 12:-0.8024153985 13:0.0277721472 14:-0.9886957969 15:0.0752406581 16:-0.8397586998 17:-0.4623122692 
-0.0 0.0 0.0 0.0 0.0 1.0 0:-0.7937012197 1:-0.5398918113 2:-0.8034822426 3:-0.5940103841 4:-0.787272526 5:-0.5811311737 6:-0.7893271762 7:-0.3404223342 8:-0.7914670716 9:-0.3481798034 10:-0.7963835506 11:-0.0363581474 12:-0.8029322592 13:-0.0023406586 14:-0.9886382093 15:0.0768684484 16:-0.8388496306 17:-0.454491581 
-0.0 0.0 0.0 0.0 1.0 1.0 0:-0.7974438668 1:-0.5288628459 2:-0.8068598017 3:-0.6032519495 4:-0.7811983325 5:-0.5848674624 6:-0.7959528195 7:-0.397895289 8:-0.7970435081 9:-0.3429884395 10:-0.7985991465 11:-0.0286726528 12:-0.807836413 13:-0.063975308 14:-0.988397093 15:0.037782663 16:-0.8426159167 17:-0.4661131048 
-0.0 1.0 0.0 0.0 0.0 0.0 0:-0.7904449449 1:-0.5752765121 2:-0.8163430106 3:-0.609298236 4:-0.7815676637 5:-0.5953397694 6:-0.7974349767 7:-0.4346772635 8:-0.7981930571 9:-0.4081382539 10:-0.7997492872 11:-0.0981060838 12:-0.8116582754 13:-0.1451646679 14:-0.9879779279 15:0.0024889411 16:-0.8387650051 17:-0.4435177003 
-0.0 1.0 0.0 0.0 0.0 0.0 0:-0.7894024265 1:-0.5744061288 2:-0.8197260918 3:-0.5962012674 4:-0.7854603207 5:-0.5995302359 6:-0.7963941362 7:-0.3804257248 8:-0.7941309921 9:-0.4039356707 10:-0.7974721947 11:-0.1975744757 12:-0.7554930008 13:-0.1644119606 14:-0.9844912313 15:0.027815979 16:-0.8343707293 17:-0.4807971507 
-0.0 0.0 0.0 0.0 1.0 1.0 0:-0.8028678105 1:-0.5475525298 2:-0.8072448273 3:-0.5752303089 4:-0.7796007903 5:-0.5814128476 6:-0.7956206431 7:-0.3080241004 8:-0.7970319058 9:-0.3039800165 10:-0.7982405147 11:-0.1948824911 12:-0.7647798683 13:-0.1396538826 14:-0.9843522487 15:-0.0087844936 16:-0.8476510237 17:-0.4241213849 
-0.0 1.0 0.0 0.0 0.0 1.0 0:-0.7929676261 1:-0.5683779707 2:-0.8136260193 3:-0.5748118697 4:-0.7842961955 5:-0.5949713945 6:-0.7972223619 7:-0.3865321631 8:-0.797884485 9:-0.3578212791 10:-0.7980331419 11:-0.1863216154 12:-0.7568152108 13:-0.191088112 14:-0.9840718825 15:0.0482932669 16:-0.8396726835 17:-0.4411424367 
-0.0 0.0 0.0 0.0 1.0 1.0 0:-0.7934443822 1:-0.50140242 2:-0.807010324 3:-0.5933217738 4:-0.7768514766 5:-0.5895243015 6:-0.7960375858 7:-0.3507701811 8:-0.7939049132 9:-0.3582480922 10:-0.7983903919 11:0.0316569375 12:-0.8118321317 13:0.0520382382 14:-0.9876203102 15:0.0199830777 16:-0.8442276303 17:-0.4784755298 
-0.0 0.0 0.0 0.0 0.0 1.0 0:-0.7954375713 1:-0.5298157127 2:-0.8093107114 3:-0.5872777679 4:-0.78297822 5:-0.57874266 6:-0.7967200597 7:-0.3390984529 8:-0.7961937346 9:-0.328332745 10:-0.7983198027 11:-0.0601909334 12:-0.7811521949 13:0.0805476479 14:-0.9876402918 15:0.0651993255 16:-0.843880767 17:-0.4414424337 
-0.0 0.0802699878453615 0.0 0.0 0.0 0.0 0:-0.7990149758 1:-0.5695021189 2:-0.8103261239 3:-0.6110030224 4:-0.7807117078 5:-0.6053873132 6:-0.7963690911 7:-0.3730721401 8:-0.7946087201 9:-0.4011869959 10:-0.7987309631 11:-0.1174524262 12:-0.8026451056 13:-0.1040807964 14:-0.9890312735 15:0.0490517763 16:-0.8398102261 17:-0.4626589271 
-0.0 0.0 0.0 0.0 0.0 1.0 0:-0.7945707973 1:-0.5444662344 2:-0.8126755888 3:-0.58085753 4:-0.7845272385 5:-0.5979966718 6:-0.7973102217 7:-0.384102068 8:-0.7977332455 9:-0.3523326507 10:-0.7986114135 11:-0.1168613559 12:-0.7877514051 13:-0.1231802832 14:-0.9875354195 15:0.0738276183 16:-0.8421891533 17:-0.398692797 
-0.0 0.0 0.0 0.0 1.0 1.0 0:-0.790983883 1:-0.5580076728 2:-0.8149072976 3:-0.565131975 4:-0.7923019372 5:-0.5816626812 6:-0.7947844455 7:-0.3294884031 8:-0.7944836125 9:-0.3331048809 10:-0.7960318171 11:-0.0608640988 12:-0.7583136811 13:-0.1393067942 14:-0.9841535926 15:0.0270638801 16:-0.8404457675 17:-0.4481690309 
-0.0 0.0 0.0 0.0 1.0 0.0 0:-0.7971919327 1:-0.5281500092 2:-0.8104219429 3:-0.5865042643 4:-0.7796617504 5:-0.5927976196 6:-0.7966610482 7:-0.3956918575 8:-0.7964476524 9:-0.3647728873 10:-0.7991452638 11:-0.0143336575 12:-0.8056724714 13:0.0742298649 14:-0.9872718627 15:0.0167776688 16:-0.8451843241 17:-0.489983689 
-0.0 0.0 0.0 0.0 0.0 1.0 0:-0.7945199595 1:-0.5246238211 2:-0.8088302272 3:-0.5822283404 4:-0.7816217972 5:-0.5845719018 6:-0.7973853841 7:-0.3472329267 8:-0.7950477367 9:-0.3549877413 10:-0.7988335649 11:-0.0444732864 12:-0.799930073 13:-0.0085369399 14:-0.9886732123 15:0.082667804 16:-0.8396417771 17:-0.4652552473 
-0.0 1.0 0.0 0.0 0.0 1.0 0:-0.7922933304 1:-0.543820463 2:-0.813106047 3:-0.6030274642 4:-0.7904768243 5:-0.5933613583 6:-0.7920044801 7:-0.3685050912 8:-0.7953406388 9:-0.3737962804 10:-0.7956466147 11:-0.1766119604 12:-0.7742406765 13:-0.281586859 14:-0.9881540931 15:0.0883737792 16:-0.833761692 17:-0.428776623 
-0.0 0.0 0.0 0.0 1.0 1.0 0:-0.7754935088 1:-0.5488863249 2:-0.821617298 3:-0.5795514511 4:-0.7705793557 5:-0.5779758979 6:-0.7977377246 7:-0.3694237092 8:-0.7945542801 9:-0.3579835192 10:-0.7986584662 11:-0.050180413 12:-0.8372245702 13:-0.0239114233 14:-0.983631797 15:0.0198934398 16:-0.8470368771 17:-0.4752924727 
-0.0 1.0 0.0 0.0 1.0 1.0 0:-0.7973790495 1:-0.5620413175 2:-0.8122264324 3:-0.5715491113 4:-0.7820251752 5:-0.5942533232 6:-0.798299156 7:-0.3492944493 8:-0.7984088059 9:-0.3372252427 10:-0.7988302829 11:-0.176062285 12:-0.7755657628 13:-0.1310485393 14:-0.986851633 15:0.0162903051 16:-0.8423970403 17:-0.4297936597 
-0.0 0.0 0.0 0.0 0.0 1.0 0:-0.7940880444 1:-0.5335564016 2:-0.8097823313 3:-0.5817559956 4:-0.7907759282 5:-0.5797281321 6:-0.7973235647 7:-0.3574823328 8:-0.7974270004 9:-0.354809348 10:-0.7986332036 11:-0.0939351798 12:-0.7892632162 13:-0.0741758752 14:-0.9900103325 15:0.1211360895 16:-0.8331750934 17:-0.4398534348 
-0.0 0.0 0.0 0.0 1.0 1.0 0:-0.7981359776 1:-0.5423510331 2:-0.8085728661 3:-0.5610361794 4:-0.7793034815 5:-0.5999275075 6:-0.7959516493 7:-0.3427449474 8:-0.7962991341 9:-0.3654712518 10:-0.7986037197 11:-0.1072110595 12:-0.7446503842 13:0.1054890397 14:-0.9784773311 15:-0.0570920739 16:-0.8508709235 17:-0.4446051029 
-0.0 0.0 0.0 0.0 0.0 1.0 0:-0.7944610877 1:-0.5306260136 2:-0.8027495477 3:-0.5857097209 4:-0.7804358065 5:-0.5920117635 6:-0.7938947247 7:-0.3712999148 8:-0.794328267 9:-0.319078985 10:-0.7981571494 11:-0.0229022072 12:-0.8074198381 13:0.1686921037 14:-0.98778877 15:0.0581333768 16:-0.8456358112 17:-0.4502363031 
-0.0 0.0 0.0 0.0 1.0 1.0 0:-0.7868548873 1:-0.5581706926 2:-0.8065686416 3:-0.5903447683 4:-0.7835385236 5:-0.5964476538 6:-0.7923568872 7:-0.354532359 8:-0.7939148427 9:-0.3270277668 10:-0.7971863405 11:-0.1017265579 12:-0.753457153 13:-0.0583821794 14:-0.9808646964 15:0.0135461573 16:-0.8461492275 17:-0.455659283 
-0.0 0.0 0.0 0.0 0.0 1.0 0:-0.7934503048 1:-0.5346339276 2:-0.8125609091 3:-0.5840457621 4:-0.7869980804 5:-0.5939701878 6:-0.7971991729 7:-0.3595610908 8:-0.7957939804 9:-0.3394444977 10:-0.7981927208 11:-0.0796716091 12:-0.7859436472 13:-0.001160806 14:-0.9876730556 15:0.04801621 16:-0.8422902495 17:-0.4471829614 
-0.0 0.0 0.0 0.0 1.0 1.0 0:-0.7793118617 1:-0.5396753262 2:-0.8106211595 3:-0.6023484695 4:-0.7884631414 5:-0.5733166967 6:-0.7958504555 7:-0.3265134541 8:-0.7990712072 9:-0.3230621387 10:-0.7977695602 11:-0.0610854721 12:-0.8315927573 13:-0.139956226 14:-0.9876485708 15:-0.0227573003 16:-0.8330613413 17:-0.4882790347 
-0.0 0.0 0.0 0.0 1.0 1.0 0:-0.7947433407 1:-0.5698037715 2:-0.8121872329 3:-0.6005901945 4:-0.7806471675 5:-0.6056244341 6:-0.7977654331 7:-0.3902092513 8:-0.795595139 9:-0.3538415807 10:-0.7989958339 11:0.0051686441 12:-0.8077452271 13:-0.0578118403 14:-0.9882031079 15:0.0186605342 16:-0.8409215611 17:-0.4698196065 
-0.0 0.0 0.0 0.0 1.0 1.0 0:-0.7979529269 1:-0.5441139931 2:-0.8205556112 3:-0.564985867 4:-0.7919408019 5:-0.5684137787 6:-0.7969653866 7:-0.3239631293 8:-0.7976059618 9:-0.332779676 10:-0.7991923214 11:-0.0519626268 12:-0.8028570053 13:-0.1185327089 14:-0.9908588497 15:0.1159270135 16:-0.8285843809 17:-0.4883535171 
-0.0 1.0 0.0 0.0 0.0 0.0 0:-0.7920999535 1:-0.5879161859 2:-0.8106753203 3:-0.6014940278 4:-0.773780595 5:-0.6139372318 6:-0.7969817426 7:-0.4481710156 8:-0.7943429345 9:-0.4126555371 10:-0.7986226583 11:-0.0761641269 12:-0.812462462 13:-0.1269354099 14:-0.9881486935 15:0.0121262765 16:-0.8349533569 17:-0.4687134014 
-0.0 0.0 0.0 0.0 0.0 1.0 0:-0.7964086743 1:-0.5160960637 2:-0.8137110984 3:-0.5719374777 4:-0.7849818224 5:-0.5999552237 6:-0.7995842877 7:-0.399195925 8:-0.7953673921 9:-0.3407354356 10:-0.7977849499 11:0.0454145943 12:-0.8031955587 13:0.0764056174 14:-0.9889672083 15:0.0638299343 16:-0.8368412068 17:-0.4386890752 
-0.0 0.0 0.0 0.0 1.0 1.0 0:-0.7950547392 1:-0.5451697747 2:-0.8095124408 3:-0.5844484666 4:-0.7765471368 5:-0.5778632884 6:-0.7985889375 7:-0.4142844743 8:-0.7975456489 9:-0.3483895029 10:-0.8006048041 11:-0.0316000554 12:-0.8091883107 13:-0.0069327561 14:-0.9832657915 15:-0.0131117075 16:-0.8522652368 17:-0.4301090456 
-0.0 0.0 0.0 0.0 1.0 1.0 0:-0.7914737021 1:-0.546297929 2:-0.8062344018 3:-0.5800643206 4:-0.7771116804 5:-0.5833952747 6:-0.7947343781 7:-0.3330535492 8:-0.7943848171 9:-0.3526534766 10:-0.7982428185 11:6.843352E-4 12:-0.815355927 13:0.0653333171 14:-0.987286865 15:0.007053429 16:-0.8444585386 17:-0.46493717 
-0.0 1.0 0.0 0.0 0.0 1.0 0:-0.795129828 1:-0.5609116534 2:-0.8073506098 3:-0.5982518731 4:-0.7868527373 5:-0.5713720846 6:-0.7922347558 7:-0.3922844386 8:-0.7953098097 9:-0.3771341778 10:-0.7959962786 11:-0.1392468575 12:-0.7856051748 13:-0.2290539984 14:-0.9891714248 15:0.1187491683 16:-0.8339115325 17:-0.4128333551 
-0.0 1.0 0.0 0.0 1.0 1.0 0:-0.7858144703 1:-0.5471969812 2:-0.8100443172 3:-0.5801443051 4:-0.7872650443 5:-0.5640286534 6:-0.7959211835 7:-0.3950016235 8:-0.7944648514 9:-0.3890413192 10:-0.8013942514 11:-0.1008513292 12:-0.7943176431 13:-0.3140159884 14:-0.9883770263 15:0.0408702558 16:-0.8347313003 17:-0.4824791357 
-0.0 0.0 0.0 0.0 1.0 1.0 0:-0.791702088 1:-0.5105489546 2:-0.8117473986 3:-0.5780091998 4:-0.7873793487 5:-0.5940346531 6:-0.7997602764 7:-0.3677747151 8:-0.7981168185 9:-0.3156193519 10:-0.7977618148 11:0.0358684828 12:-0.8081078377 13:-0.0275442167 14:-0.9892804805 15:0.0793745407 16:-0.8338271294 17:-0.4620372373 
-0.0 0.0 0.0 0.0 1.0 1.0 0:-0.791474666 1:-0.5394213219 2:-0.8045819083 3:-0.581329481 4:-0.7833934924 5:-0.5869361466 6:-0.7931902988 7:-0.3361398726 8:-0.7950962883 9:-0.32688933 10:-0.7971491047 11:-0.0625799741 12:-0.7837911578 13:-0.0678874202 14:-0.9879659693 15:0.062414619 16:-0.842481685 17:-0.4355162462 
-0.0 0.0 0.0 0.0 0.0 1.0 0:-0.7954163787 1:-0.5396081518 2:-0.8104885117 3:-0.5921405665 4:-0.7885037979 5:-0.596718043 6:-0.7975588441 7:-0.3711920054 8:-0.7983241607 9:-0.3479748359 10:-0.79895107 11:-0.1121384979 12:-0.7975407536 13:-0.09632136 14:-0.9876180489 15:0.0840589066 16:-0.8416032734 17:-0.4439978197 
-0.0 0.0 0.0 0.0 1.0 1.0 0:-0.7965605495 1:-0.542639587 2:-0.8054892922 3:-0.5521477265 4:-0.7786000402 5:-0.5886466577 6:-0.79722559 7:-0.3626861946 8:-0.7928314414 9:-0.3643635665 10:-0.7966918401 11:-0.1171019448 12:-0.7475612283 13:-0.1361871548 14:-0.9823993396 15:0.0240691667 16:-0.8359690765 17:-0.4664247509 
-0.0 0.0 0.0 0.0 0.0 1.0 0:-0.7950073117 1:-0.5071799826 2:-0.8103661872 3:-0.5881796807 4:-0.7891434989 5:-0.5959430126 6:-0.7977193747 7:-0.3756336123 8:-0.7966436624 9:-0.3028108901 10:-0.798342364 11:-0.0455439219 12:-0.7966875604 13:0.0441088197 14:-0.9886714089 15:0.108327862 16:-0.8392178082 17:-0.4563540852 
-0.0 0.0 0.0 0.0 1.0 1.0 0:-0.7962709192 1:-0.5047827816 2:-0.8075605841 3:-0.5931968118 4:-0.7823283927 5:-0.6005295702 6:-0.795847272 7:-0.3387440901 8:-0.7959354816 9:-0.3464401792 10:-0.798233288 11:-0.0946382534 12:-0.7791437864 13:0.0117930344 14:-0.9870467903 15:0.0601093556 16:-0.8445177626 17:-0.4656519698 
-0.0 0.0 0.0 0.0 1.0 0.0 0:-0.7880865528 1:-0.5682322773 2:-0.8194811665 3:-0.601145246 4:-0.7817614791 5:-0.6103549825 6:-0.7984301655 7:-0.420573124 8:-0.795879594 9:-0.4182198506 10:-0.7998935861 11:-0.1348157028 12:-0.8119181032 13:0.0300815257 14:-0.9849223606 15:-0.0609637907 16:-0.8395612602 17:-0.521235537 
-0.0 0.0 0.0 0.0 0.0 1.0 0:-0.7947463739 1:-0.5474551082 2:-0.8128742535 3:-0.5695610985 4:-0.7868562285 5:-0.6012597759 6:-0.7985726889 7:-0.393939941 8:-0.7985587002 9:-0.3505259586 10:-0.7989567731 11:-0.1024756666 12:-0.79057721 13:-0.1539081387 14:-0.9883677501 15:0.1047766445 16:-0.8386870903 17:-0.4310653891 
-0.18844979013849944 0.0 0.0 0.0 0.0 1.0 0:-0.7922217007 1:-0.5475589653 2:-0.8069234454 3:-0.5920606471 4:-0.7791977832 5:-0.5980626639 6:-0.798639902 7:-0.3904307955 8:-0.798173142 9:-0.3543033655 10:-0.7996129344 11:0.1090348465 12:-0.8024406746 13:0.0677858281 14:-0.9870112015 15:0.0515896815 16:-0.8474822344 17:-0.4397955304 
-0.0 0.0 0.0 0.0 1.0 1.0 0:-0.8135708986 1:-0.5385313907 2:-0.8062656124 3:-0.5888271797 4:-0.7949941231 5:-0.5784406232 6:-0.8002753835 7:-0.3935893572 8:-0.7864803669 9:-0.3670968573 10:-0.7963269501 11:-0.0213263896 12:-0.7950103082 13:-0.174048157 14:-0.9866384779 15:0.0605195068 16:-0.8401307668 17:-0.4763378582 
-0.0 1.0 0.0 0.0 1.0 1.0 0:-0.7889017885 1:-0.5310468292 2:-0.8087704538 3:-0.5913300476 4:-0.7906826006 5:-0.5794254437 6:-0.794661783 7:-0.3901069535 8:-0.7940089138 9:-0.3566642481 10:-0.8008050579 11:-0.1550385969 12:-0.768537593 13:-0.3179776988 14:-0.9859559756 15:-0.0217836993 16:-0.8375274023 17:-0.446153823 
-0.0 0.0 0.0 0.0 1.0 0.0 0:-0.7874910085 1:-0.5317974658 2:-0.8083272648 3:-0.5940050164 4:-0.7789638277 5:-0.6062124418 6:-0.7921650274 7:-0.3531054195 8:-0.7934040637 9:-0.3831396586 10:-0.798246093 11:-0.0311149338 12:-0.8182764446 13:0.065804066 14:-0.9867014284 15:-0.0100306782 16:-0.8423454601 17:-0.4701908164 
-0.0 1.0 0.0 0.0 1.0 1.0 0:-0.7916144493 1:-0.5404221179 2:-0.81265618 3:-0.5848336038 4:-0.7900812692 5:-0.5905407443 6:-0.7955740619 7:-0.371579968 8:-0.796553352 9:-0.3360273468 10:-0.8007247304 11:-0.111459954 12:-0.7941965451 13:-0.2081631475 14:-0.9880003508 15:0.0569974956 16:-0.840775493 17:-0.4681654454 
-0.0 0.0 0.8988493789744095 0.21661778309863283 0.0 0.0 0:-0.7932565826 1:-0.5351577505 2:-0.8125905272 3:-0.5850697762 4:-0.7898473375 5:-0.59387316 6:-0.7934420824 7:-0.3887442461 8:-0.7948311642 9:-0.3410918931 10:-0.7980641939 11:-0.022728849 12:-0.8067407586 13:0.2178057959 14:-0.9900090948 15:0.1193437475 16:-0.8324808271 17:-0.4597414291 
-0.0 0.0 0.0 0.0 0.0 1.0 0:-0.7909013865 1:-0.546923055 2:-0.8061501115 3:-0.5965472369 4:-0.7775643925 5:-0.5829716563 6:-0.7947975449 7:-0.3985370651 8:-0.7938888848 9:-0.343045238 10:-0.7985031475 11:-0.0258326244 12:-0.811074446 13:-0.0659172861 14:-0.9888880498 15:0.0601328285 16:-0.8332892258 17:-0.4639770376 
-0.0 0.0 0.0 0.0 0.0 1.0 0:-0.7941990854 1:-0.5261494851 2:-0.8122382125 3:-0.6002045984 4:-0.7800752645 5:-0.5988136913 6:-0.7976501607 7:-0.4188965047 8:-0.7968158553 9:-0.3501449888 10:-0.7993312939 11:0.0403177356 12:-0.8131017356 13:0.0189587536 14:-0.9884456057 15:0.0612597108 16:-0.8395667283 17:-0.4544998778 
-0.26856912159976354 0.0 0.0 0.0 0.0 1.0 0:-0.7891240439 1:-0.5437790857 2:-0.8082858537 3:-0.5816676551 4:-0.7852954991 5:-0.5968293437 6:-0.7945104544 7:-0.3047919571 8:-0.7941410434 9:-0.3672870559 10:-0.7973169603 11:0.0261742347 12:-0.776953799 13:0.0954471646 14:-0.9865417227 15:0.0601016652 16:-0.8433278419 17:-0.4346801953 
-0.0 0.0 0.0 0.0 1.0 0.0 0:-0.7958480703 1:-0.5553565142 2:-0.8127832704 3:-0.5652849989 4:-0.7822537408 5:-0.5951344143 6:-0.7987163022 7:-0.422449277 8:-0.795923244 9:-0.4045783785 10:-0.799620435 11:-0.0511050955 12:-0.8042302038 13:0.0286121609 14:-0.9828972348 15:-0.0872601486 16:-0.8506156722 17:-0.4711653234 
-1.0 1.0 0.0 0.9582250418658304 1.0 1.0 0:-0.7978292229 1:-0.5737031804 2:-0.8012442575 3:-0.5683479403 4:-0.7804087935 5:-0.5681190561 6:-0.7939200183 7:-0.3278192818 8:-0.7952568679 9:-0.3630325842 10:-0.7966242101 11:-0.2134821697 12:-0.7288553932 13:-0.3533372754 14:-0.9792616446 15:-0.0617009095 16:-0.8256036013 17:-0.4354186666 
-0.0 0.0 0.0 0.0 1.0 1.0 0:-0.7943734592 1:-0.5384847985 2:-0.8121226122 3:-0.5642244284 4:-0.7854332178 5:-0.595807709 6:-0.7976190896 7:-0.3969745272 8:-0.7967412983 9:-0.3372728924 10:-0.7984822332 11:-0.0513112585 12:-0.7917667275 13:-0.0793881562 14:-0.9873296273 15:0.0373627403 16:-0.8433443209 17:-0.4384718496 
-0.0 0.0 0.0 0.0 1.0 1.0 0:-0.7926070631 1:-0.5381700155 2:-0.8060138744 3:-0.5806163837 4:-0.7795988955 5:-0.5894652039 6:-0.7935758289 7:-0.3525818438 8:-0.7943988221 9:-0.3310598576 10:-0.7973855724 11:-0.1158956981 12:-0.7481680584 13:0.0058154318 14:-0.9789495907 15:-0.0277387064 16:-0.8496443999 17:-0.4569389403 
-1.0 1.0 0.8701932149875952 1.0 1.0 1.0 0:-0.7890111512 1:-0.5562861431 2:-0.8048872622 3:-0.5581460129 4:-0.7914655738 5:-0.5427169885 6:-0.7942438837 7:-0.2949276083 8:-0.7972093248 9:-0.3733801807 10:-0.7981430588 11:-0.2711572681 12:-0.7170722978 13:-0.3293210391 14:-0.974415326 15:-0.1467469254 16:-0.825848974 17:-0.4655987809 
-0.0 0.0 0.0 0.0 1.0 1.0 0:-0.7928359778 1:-0.5210383004 2:-0.8028138405 3:-0.5605750542 4:-0.7763412557 5:-0.5928082274 6:-0.7958954254 7:-0.3375572022 8:-0.7955068353 9:-0.32756349 10:-0.7980966829 11:-0.0443162561 12:-0.8013962838 13:-0.023566322 14:-0.9886930982 15:0.083122376 16:-0.8393555892 17:-0.467833772 
-0.0 0.0 0.0 0.0 1.0 1.0 0:-0.7888565466 1:-0.5435483247 2:-0.8047383727 3:-0.5788705781 4:-0.7844247324 5:-0.5849776399 6:-0.7946738212 7:-0.3778829385 8:-0.7953307524 9:-0.3510180692 10:-0.7989501554 11:-0.0152454171 12:-0.8123683758 13:-0.0866203718 14:-0.9886227074 15:0.032641855 16:-0.8349413573 17:-0.4665313935 
-0.0 1.0 0.0 0.0 1.0 1.0 0:-0.7939611061 1:-0.5283703989 2:-0.8107468792 3:-0.5823948074 4:-0.7869096386 5:-0.5926417604 6:-0.7992201238 7:-0.4124433463 8:-0.793127141 9:-0.4101895851 10:-0.8024044512 11:-0.2019116392 12:-0.7750867396 13:-0.3147496686 14:-0.9838448994 15:-0.0223528045 16:-0.8364926748 17:-0.4497668397 
-0.0 0.0 0.0 0.0 1.0 1.0 0:-0.7981384568 1:-0.5670285768 2:-0.8104676033 3:-0.6014599154 4:-0.7801602452 5:-0.6021078328 6:-0.7963879759 7:-0.393409057 8:-0.7964619008 9:-0.3389692733 10:-0.7987175663 11:-0.0076699185 12:-0.8066336025 13:-0.1062390881 14:-0.9877560087 15:0.0270966343 16:-0.8425912703 17:-0.4719401388 
-0.0 0.0 0.0 0.0 1.0 0.0 0:-0.7945760183 1:-0.5424474519 2:-0.805518092 3:-0.5916818178 4:-0.7813306613 5:-0.6016726293 6:-0.7924795851 7:-0.4063609723 8:-0.795096065 9:-0.404138194 10:-0.7989240073 11:-0.0770909039 12:-0.8081372612 13:-0.0759740526 14:-0.9860080093 15:-0.0545262742 16:-0.8463639157 17:-0.4948743455 
-0.0 0.0 0.0 0.0 1.0 0.0 0:-0.7887219501 1:-0.5456441513 2:-0.8063706584 3:-0.6051368103 4:-0.7857698555 5:-0.5992747414 6:-0.7919294522 7:-0.360204063 8:-0.7937693976 9:-0.3997252284 10:-0.7979652966 11:-0.0261744878 12:-0.8051694761 13:0.0139592048 14:-0.9867976946 15:-0.0113009406 16:-0.8418615514 17:-0.5029933366 
-0.0 0.0 0.0 0.0 0.0 1.0 0:-0.7898264346 1:-0.5213552589 2:-0.8127773575 3:-0.5788974514 4:-0.7895566903 5:-0.5718074142 6:-0.7948367494 7:-0.3739784946 8:-0.7964566685 9:-0.3831194338 10:-0.7992941162 11:-0.0478693262 12:-0.8026999363 13:-0.1060156456 14:-0.9879027745 15:0.0622753411 16:-0.8419409129 17:-0.4709820005 
-0.0 1.0 0.0 0.0 0.0 1.0 0:-0.7939388066 1:-0.5410489254 2:-0.8052279258 3:-0.5886394972 4:-0.7831742681 5:-0.5969639705 6:-0.7928912565 7:-0.3422871967 8:-0.7955406772 9:-0.3764316165 10:-0.7972128118 11:-0.1414420836 12:-0.804926838 13:-0.1349023234 14:-0.9887475195 15:0.0539022834 16:-0.8400296594 17:-0.4553058563 
-0.0 0.0 0.0 0.0 0.0 1.0 0:-0.7956218807 1:-0.5428239018 2:-0.8144837284 3:-0.5675104928 4:-0.7928316094 5:-0.5829375967 6:-0.7930631078 7:-0.3479799278 8:-0.7946077763 9:-0.3561706971 10:-0.7966385191 11:-0.106701018 12:-0.7717071649 13:-0.1148627939 14:-0.9876647612 15:0.151186207 16:-0.8357961606 17:-0.415519375 
-0.0 1.0 0.0 0.0 1.0 1.0 0:-0.7908063324 1:-0.5711014293 2:-0.8182383435 3:-0.600668321 4:-0.7841057599 5:-0.5813844545 6:-0.7974033676 7:-0.3400230371 8:-0.7957667024 9:-0.4102468355 10:-0.7979901536 11:-0.2382728735 12:-0.7466471017 13:-0.2512905629 14:-0.9824390581 15:0.026078648 16:-0.8328930287 17:-0.4682586355 
-0.0 0.0 0.0 0.0 1.0 1.0 0:-0.7915507366 1:-0.5174885003 2:-0.808154034 3:-0.5856456493 4:-0.7872166182 5:-0.5855724968 6:-0.7953541567 7:-0.3142061112 8:-0.7953961766 9:-0.3147995262 10:-0.7979550741 11:-0.0883872651 12:-0.8021064612 13:-0.0470401082 14:-0.9898588716 15:0.1072282532 16:-0.8326306753 17:-0.4480215647 
-0.43261059621526854 0.0 0.0 0.0 0.0 0.0 0:-0.7899391471 1:-0.5350015626 2:-0.812494125 3:-0.5934724411 4:-0.7808220182 5:-0.5923328292 6:-0.7987089712 7:-0.3931579805 8:-0.798343866 9:-0.3750499055 10:-0.7994520809 11:0.0361139984 12:-0.8105780538 13:0.1758257223 14:-0.9885004009 15:0.0337958982 16:-0.8405597181 17:-0.4389813005 
-0.0 0.0 0.0 0.0 0.0 1.0 0:-0.784224216 1:-0.5282757757 2:-0.8072848858 3:-0.5949107702 4:-0.7909763073 5:-0.5834543723 6:-0.7985919503 7:-0.3662323326 8:-0.8011810448 9:-0.3475044607 10:-0.7994821028 11:0.0051738361 12:-0.8135685766 13:0.0115702541 14:-0.9896188301 15:0.0900287051 16:-0.8334030434 17:-0.4543496409 
-0.0 0.0 0.0 0.0 0.0 1.0 0:-0.7964756976 1:-0.5265233405 2:-0.8057887859 3:-0.5922236669 4:-0.7825666786 5:-0.5984183401 6:-0.7955219134 7:-0.3815049746 8:-0.796525657 9:-0.3357824294 10:-0.7982616958 11:-0.0424361113 12:-0.7851544314 13:0.0305938391 14:-0.9878447232 15:0.0666494803 16:-0.8441286622 17:-0.4492671776 
-0.0 0.0 0.0 0.0 0.0 1.0 0:-0.7886911511 1:-0.5532124411 2:-0.8131256334 3:-0.5694742847 4:-0.7844382257 5:-0.5789247087 6:-0.7977372 7:-0.3877774946 8:-0.7953794305 9:-0.3655940829 10:-0.7982326962 11:-0.1239373984 12:-0.7543679366 13:-0.1275149806 14:-0.9841692471 15:0.0689169726 16:-0.8370642992 17:-0.4555415666 
-0.0 1.0 0.0 0.0 0.0 0.0 0:-0.7897263225 1:-0.5883846896 2:-0.8159682242 3:-0.6155643764 4:-0.7840312168 5:-0.6113331013 6:-0.7985833958 7:-0.4504638561 8:-0.7988902326 9:-0.413062451 10:-0.7980174853 11:-0.0909134012 12:-0.8113136692 13:-0.0887693577 14:-0.9889596532 15:0.04684127 16:-0.8345173651 17:-0.4073461247 
-0.0 0.0 0.0 0.0 1.0 1.0 0:-0.7956502858 1:-0.5170488457 2:-0.8021787965 3:-0.5896145625 4:-0.7818980092 5:-0.5758895486 6:-0.7923218355 7:-0.3185488388 8:-0.7929299675 9:-0.3267069039 10:-0.7974649314 11:-0.102765641 12:-0.8022901753 13:0.0292064842 14:-0.9885909056 15:0.0415428229 16:-0.8428307308 17:-0.4625599157 
-0.0 0.0 0.0 0.0 0.0 1.0 0:-0.791831487 1:-0.5496565993 2:-0.8123068371 3:-0.5680424563 4:-0.7856409249 5:-0.5993168057 6:-0.7970221081 7:-0.3702523094 8:-0.7963858103 9:-0.34781118 10:-0.7984574301 11:-0.0111076379 12:-0.7863828357 13:0.0902759358 14:-0.9874057641 15:0.0688410376 16:-0.8436322764 17:-0.4296426868 
-0.0 0.0 0.0 0.0 1.0 0.0 0:-0.7984114828 1:-0.566870548 2:-0.8126989482 3:-0.5819467316 4:-0.7756599966 5:-0.6020612137 6:-0.7979022532 7:-0.4357735136 8:-0.7953872991 9:-0.3983533083 10:-0.8004450639 11:-0.0594128808 12:-0.8014510734 13:-0.0310130091 14:-0.984097216 15:-0.0862236914 16:-0.8504551556 17:-0.5059426941 
-0.0 0.0 0.0 0.0 0.0 1.0 0:-0.7934141106 1:-0.5468060174 2:-0.814611573 3:-0.5880742317 4:-0.7826755665 5:-0.5759354411 6:-0.8004329718 7:-0.422675758 8:-0.7984910703 9:-0.3780230721 10:-0.8001943433 11:-0.0693863539 12:-0.8090675936 13:-0.0047253471 14:-0.9833948602 15:-0.0212275071 16:-0.8492767643 17:-0.4329286402 
-0.0 0.0 0.0 0.0 1.0 1.0 0:-0.7939583269 1:-0.5579363756 2:-0.8116574275 3:-0.5600147627 4:-0.7816287152 5:-0.5977487587 6:-0.7973730095 7:-0.3549607922 8:-0.7971505621 9:-0.3567994138 10:-0.7992222896 11:-0.1126216449 12:-0.7442945403 13:0.1180759524 14:-0.978254446 15:-0.0437564307 16:-0.8501840214 17:-0.4387993399 
-0.0 0.0 0.0 0.0 1.0 0.0 0:-0.7847658386 1:-0.5700674831 2:-0.8025563653 3:-0.5970808737 4:-0.7840913501 5:-0.5962436163 6:-0.7905660071 7:-0.3558568098 8:-0.7949592928 9:-0.4152460299 10:-0.7981219496 11:-0.0071140666 12:-0.8068646984 13:-0.0017323712 14:-0.9865008571 15:-0.0174442728 16:-0.8436644843 17:-0.4932700512 
-0.0 0.0 0.0 0.0 0.0 1.0 0:-0.7949692818 1:-0.5612646923 2:-0.812165977 3:-0.6090578141 4:-0.7830891103 5:-0.591703743 6:-0.7981517114 7:-0.4124536808 8:-0.7976854874 9:-0.3435706838 10:-0.798965514 11:-0.0092129474 12:-0.809004401 13:-0.003713409 14:-0.987918033 15:0.0681052219 16:-0.8378186009 17:-0.4412664539 
-0.0 1.0 0.0 0.0 1.0 1.0 0:-0.7958370895 1:-0.5147835492 2:-0.8049500482 3:-0.5766345485 4:-0.7779230736 5:-0.5730561402 6:-0.7958235854 7:-0.3411058498 8:-0.7942279582 9:-0.3127205221 10:-0.8001799779 11:-0.1468132136 12:-0.7980955156 13:-0.187949494 14:-0.9893579348 15:0.0758548563 16:-0.8332485473 17:-0.4647622566 
-0.0 0.0 0.0 0.0 0.0 1.0 0:-0.7902334301 1:-0.5620012488 2:-0.8056979434 3:-0.5820092764 4:-0.7839999894 5:-0.5898882062 6:-0.7915176999 7:-0.3656761146 8:-0.7933494135 9:-0.3753924149 10:-0.7971837584 11:-0.02866462 12:-0.7992310816 13:-0.0344045685 14:-0.9860006224 15:0.0196606555 16:-0.8460195558 17:-0.442903684 
-0.0 0.0 0.0 0.0 1.0 1.0 0:-0.7991377622 1:-0.536442662 2:-0.8028218257 3:-0.5771694381 4:-0.7766090453 5:-0.5939463126 6:-0.7956235363 7:-0.3989796274 8:-0.7965717359 9:-0.372107109 10:-0.7999885067 11:-0.0477779727 12:-0.8078698819 13:-0.0216013714 14:-0.98311504 15:-0.050290985 16:-0.8539571512 17:-0.4505912083 
-0.0 0.0 0.0 0.0 1.0 0.0 0:-0.7922636599 1:-0.5324606966 2:-0.8101385727 3:-0.5988762361 4:-0.7720497156 5:-0.5910297386 6:-0.7979650949 7:-0.3964230357 8:-0.7941745859 9:-0.37920216 10:-0.798134022 11:-0.122890814 12:-0.8073902492 13:-0.0045922711 14:-0.9877152395 15:-0.0067283448 16:-0.8352557045 17:-0.5171065923 
-0.0 0.0 0.0 0.0 0.0 1.0 0:-0.7911180555 1:-0.5405647123 2:-0.8109341834 3:-0.575901417 4:-0.7845083845 5:-0.5940190714 6:-0.7980118629 7:-0.3922000657 8:-0.7981514541 9:-0.3578597214 10:-0.7981039462 11:-0.0963672645 12:-0.769938005 13:-0.1424346055 14:-0.9866863935 15:0.0914728617 16:-0.8392962534 17:-0.4338304748 
-0.0 0.0 0.0 0.0 0.0 1.0 0:-0.7939999774 1:-0.5511434126 2:-0.808731892 3:-0.5888045536 4:-0.7910080746 5:-0.592782066 6:-0.7987340433 7:-0.3928590476 8:-0.7979652025 9:-0.3683663232 10:-0.797105314 11:-0.0949611333 12:-0.8035238799 13:-0.1435006561 14:-0.9892373225 15:0.0819340626 16:-0.8324861247 17:-0.4646503081 
-0.0 0.0 0.0 0.0 1.0 1.0 0:-0.7927043583 1:-0.5327217896 2:-0.8119665586 3:-0.5635966182 4:-0.7844240316 5:-0.5869205649 6:-0.7971137206 7:-0.4011320289 8:-0.7967736337 9:-0.3241389934 10:-0.7987650741 11:-0.0661399189 12:-0.7941326673 13:-0.0659346436 14:-0.9877996101 15:0.0479004303 16:-0.8431894917 17:-0.4380418821 
-0.0 0.0 0.0 0.0 0.0 1.0 0:-0.7958910505 1:-0.5287627503 2:-0.8044540008 3:-0.583920771 4:-0.7830561339 5:-0.6069200271 6:-0.7929135578 7:-0.3471681492 8:-0.7924503163 9:-0.3607950295 10:-0.797243587 11:0.0180733256 12:-0.803192154 13:0.050020863 14:-0.9883117408 15:0.0595416807 16:-0.842848558 17:-0.438712201 
-0.0 1.0 0.0 0.0 0.0 1.0 0:-0.7881560251 1:-0.5756310278 2:-0.819725323 3:-0.5832333878 4:-0.7899415721 5:-0.5941855384 6:-0.7937634618 7:-0.3874724302 8:-0.794533921 9:-0.3631934857 10:-0.7964672346 11:-0.1870014135 12:-0.7635742784 13:-0.2574785708 14:-0.9865218377 15:0.0759209186 16:-0.8346722992 17:-0.4407058835 
-0.0 0.0 0.0 0.0 0.0 1.0 0:-0.7949306249 1:-0.5222951897 2:-0.8113920025 3:-0.5722429617 4:-0.7852959755 5:-0.600034877 6:-0.797239888 7:-0.410581238 8:-0.7966242236 9:-0.3178668933 10:-0.7985981781 11:-0.0499003522 12:-0.7938647548 13:-0.0625158775 14:-0.9883419428 15:0.0795480636 16:-0.8410223287 17:-0.4260773769 
-0.0 0.0 0.0 0.0 1.0 0.0 0:-0.7907637705 1:-0.5732801781 2:-0.8148813756 3:-0.606764046 4:-0.7813531319 5:-0.5939288104 6:-0.7983101319 7:-0.4161681632 8:-0.7968568127 9:-0.4016702769 10:-0.7990463547 11:-0.0608239269 12:-0.8118308572 13:0.0050600416 14:-0.9847593319 15:-0.0500818768 16:-0.8463089106 17:-0.4793498167 
-0.0 0.0 0.0 0.0 1.0 1.0 0:-0.7713806038 1:-0.5296721156 2:-0.8131023334 3:-0.5855724968 4:-0.7621228719 5:-0.5655486694 6:-0.7996044906 7:-0.3182997637 8:-0.7976657232 9:-0.3187210593 10:-0.7985790781 11:-0.0376703367 12:-0.8395293984 13:-0.0168771652 14:-0.9833544966 15:0.0125268218 16:-0.8480216419 17:-0.4615629579 
-0.0 0.0 0.0 1.0 0.0 1.0 0:-0.7919673068 1:-0.5503326162 2:-0.8077630962 3:-0.5808142322 4:-0.7826606647 5:-0.5922895313 6:-0.7939097285 7:-0.3235696516 8:-0.7948418876 9:-0.3240021564 10:-0.7974005295 11:-0.0172694332 12:-0.7772252059 13:0.1199785948 14:-0.9866562767 15:0.0520635459 16:-0.8437393507 17:-0.4260930914 
-0.0 0.0 0.0 0.0 1.0 1.0 0:-0.792415809 1:-0.5525479865 2:-0.8053212291 3:-0.5793865108 4:-0.7823868948 5:-0.5867540978 6:-0.7934187652 7:-0.3678385395 8:-0.7940910302 9:-0.3874083662 10:-0.7977128543 11:0.0377600295 12:-0.8034655365 13:-0.0384053522 14:-0.9860572149 15:0.0113847826 16:-0.8473565473 17:-0.4575209434 
-0.0 0.0 0.0 0.0 0.0 1.0 0:-0.7892314358 1:-0.5406843438 2:-0.8080818285 3:-0.5740194649 4:-0.7835132736 5:-0.6005174357 6:-0.7935286977 7:-0.3338474764 8:-0.7942214347 9:-0.3501113951 10:-0.7975410084 11:0.0176563664 12:-0.7777132854 13:0.1242683627 14:-0.9864662831 15:0.0659345556 16:-0.8435777626 17:-0.4507689045 
-0.0 0.0 0.0 0.0 0.0 1.0 0:-0.7956184174 1:-0.5280585436 2:-0.8128839591 3:-0.6026649595 4:-0.7858207385 5:-0.5935559726 6:-0.7988731747 7:-0.3958669776 8:-0.7973038609 9:-0.3508730074 10:-0.7982591058 11:0.0175558409 12:-0.804424268 13:0.02695217 14:-0.9891822763 15:0.0684606368 16:-0.8360563799 17:-0.4369094571 
-0.0 0.0 0.0 0.0 0.0 1.0 0:-0.7855230224 1:-0.5308587387 2:-0.8072263514 3:-0.5835222848 4:-0.7750620244 5:-0.5550780239 6:-0.7987975305 7:-0.3704482994 8:-0.8107909632 9:-0.3673600162 10:-0.8001436611 11:-0.0959181573 12:-0.8154153854 13:-0.0286804365 14:-0.9885279149 15:0.0629907817 16:-0.844967065 17:-0.4695136412 
-0.0 0.0 0.0 0.0 1.0 1.0 0:-0.7939865465 1:-0.5313079475 2:-0.8116139754 3:-0.589054271 4:-0.78522905 5:-0.5904592982 6:-0.7975204712 7:-0.3635955284 8:-0.7964539743 9:-0.3239705374 10:-0.7985920848 11:-0.0570896037 12:-0.7899666016 13:-0.0133148246 14:-0.9880231348 15:0.0475458632 16:-0.8422855664 17:-0.4634591009 
-0.0 0.0 0.0 0.0 1.0 1.0 0:-0.7820002969 1:-0.536981738 2:-0.8163156532 3:-0.5760298262 4:-0.7811024363 5:-0.5922460154 6:-0.792000176 7:-0.3842518963 8:-0.7946467451 9:-0.3678334441 10:-0.7986252408 11:-0.0513819419 12:-0.8266367497 13:0.0156413178 14:-0.9863538845 15:0.0076011389 16:-0.8409826665 17:-0.4662740213 
-0.0 0.0 0.0 0.0 0.0 1.0 0:-0.7994764613 1:-0.5264133737 2:-0.8066625206 3:-0.6028107145 4:-0.7775092995 5:-0.5931186853 6:-0.7976787569 7:-0.3490226448 8:-0.7959336658 9:-0.3480633405 10:-0.7997368049 11:-0.0503343436 12:-0.80247312 13:0.03444426 14:-0.9883527817 15:0.0470983375 16:-0.8443540607 17:-0.4536129996 
-0.0 0.0 0.0 0.0 0.0 0.0290776372374165 0:-0.79077156 1:-0.5385481932 2:-0.8226458088 3:-0.5876579311 4:-0.7926104797 5:-0.5896232498 6:-0.7963242118 7:-0.3542833512 8:-0.7947390929 9:-0.3533476364 10:-0.7988339298 11:-0.0529132693 12:-0.809992759 13:-0.0578170677 14:-0.9903098591 15:0.1102265043 16:-0.8324731778 17:-0.4581085938 
-0.0902540350126467 0.0 0.0 0.0 0.0 0.0 0:-0.794169398 1:-0.5409025551 2:-0.809725634 3:-0.6050884116 4:-0.7795418965 5:-0.5812078386 6:-0.7973580268 7:-0.3842348225 8:-0.796235328 9:-0.3803903876 10:-0.798990963 11:0.0475380319 12:-0.809492292 13:0.1728112508 14:-0.9886238793 15:0.0463395956 16:-0.8409654355 17:-0.4756949363 
-0.0 1.0 0.0 0.0 0.0 0.0 0:-0.7898552995 1:-0.5603763529 2:-0.8036871325 3:-0.5966320614 4:-0.7794937208 5:-0.5943255929 6:-0.7948034858 7:-0.4045149157 8:-0.7944234234 9:-0.4157236923 10:-0.7994103839 11:-0.1456887557 12:-0.8058381657 13:-0.0341763097 14:-0.9891005411 15:0.0893671501 16:-0.8331138416 17:-0.4384712476 
-0.0 1.0 0.0 0.0 1.0 1.0 0:-0.7983192929 1:-0.575186793 2:-0.8087921118 3:-0.6004271747 4:-0.779976508 5:-0.5834994149 6:-0.7958648252 7:-0.3325429673 8:-0.7963008021 9:-0.3962567787 10:-0.7978843774 11:-0.2203588721 12:-0.7367545386 13:-0.319856991 14:-0.9809271415 15:0.0141929364 16:-0.8290290668 17:-0.4807800423 
-0.0 0.0 0.0 0.0 0.0 1.0 0:-0.7922690206 1:-0.5419383099 2:-0.8122834511 3:-0.5804525764 4:-0.7846662174 5:-0.6092309523 6:-0.7974003413 7:-0.3925317199 8:-0.7967600082 9:-0.3477611289 10:-0.798490465 11:-0.0584030544 12:-0.78360016 13:-0.0094250898 14:-0.9875264394 15:0.0665090209 16:-0.8436486384 17:-0.4160058239 
-0.0 0.0 0.0 0.0 1.0 1.0 0:-0.7963487616 1:-0.5093006875 2:-0.8083043162 3:-0.580481015 4:-0.7824219925 5:-0.589716958 6:-0.7964714136 7:-0.3230982635 8:-0.7968034817 9:-0.3087174348 10:-0.7983074856 11:-0.0494047024 12:-0.7806239692 13:0.1260368632 14:-0.9871327659 15:0.054314922 16:-0.845204806 17:-0.4557724989 
-0.0 0.0 0.0 0.0 0.0 1.0 0:-0.7916447263 1:-0.5387549453 2:-0.8143420125 3:-0.6001543871 4:-0.782362988 5:-0.5868304691 6:-0.7986850829 7:-0.4016036717 8:-0.7980140554 9:-0.3574675367 10:-0.7988790282 11:0.0111774437 12:-0.8089594222 13:0.0538162684 14:-0.9876734943 15:0.0293249432 16:-0.8409414686 17:-0.4361674992 
-0.0 0.0 0.0 0.0 1.0 1.0 0:-0.7891209658 1:-0.5381165517 2:-0.811185216 3:-0.5908721516 4:-0.7881478467 5:-0.591046847 6:-0.7952375259 7:-0.3948445077 8:-0.7945489855 9:-0.350428733 10:-0.8000833482 11:-0.0507994303 12:-0.7842167039 13:-0.1995640985 14:-0.9877894547 15:0.0817182999 16:-0.8389747797 17:-0.4795738294 
-0.0 0.0 0.0 0.0 0.0 1.0 0:-0.7948880209 1:-0.5208657406 2:-0.8102847242 3:-0.5762205622 4:-0.7811954878 5:-0.6061968601 6:-0.7969951396 7:-0.3787392526 8:-0.7963247038 9:-0.3462779711 10:-0.7989626915 11:-0.0328629516 12:-0.7872518524 13:-0.054090458 14:-0.9879438011 15:0.0628354628 16:-0.8434181824 17:-0.4404325371 
-0.0 0.0 0.0 0.0 0.5016723439610158 0.0 0:-0.7959048267 1:-0.5282162192 2:-0.8036921155 3:-0.5967600322 4:-0.7804518997 5:-0.5860669239 6:-0.794188467 7:-0.3618190117 8:-0.7941950847 9:-0.3884115328 10:-0.7980561156 11:0.0451674709 12:-0.8092526784 13:-0.0044731944 14:-0.9887205032 15:0.0387843678 16:-0.8414842073 17:-0.4823310459 
-0.0 0.0 0.0 0.0 1.0 1.0 0:-0.7901828468 1:-0.5670543896 2:-0.8136011101 3:-0.5836818574 4:-0.7842664243 5:-0.5959077251 6:-0.7980990234 7:-0.3979374812 8:-0.7963008019 9:-0.3446020931 10:-0.798878275 11:-0.1406936307 12:-0.7447879204 13:0.0253589174 14:-0.9790037033 15:-0.0393496451 16:-0.8465282301 17:-0.4473896924 
-0.0 -1.0 0.0 0.0 1.0 1.0 0:-0.8021511883 1:-0.6238175244 2:-0.8246752385 3:-0.6570284634 4:-0.7647954973 5:-0.6149223348 6:-0.7900642734 7:-0.4611642317 8:-0.7901059706 9:-0.4828797997 10:-0.7895228972 11:-0.373300569 12:-0.7560864187 13:-0.391549829 14:-0.9836064724 15:-0.1545225259 16:-0.8240696236 17:-0.5285823913 
-0.0 -0.0 0.0 0.0 0.0 1.0 0:-0.7795493665 1:-0.6249458295 2:-0.8339573339 3:-0.6359765348 4:-0.7847228705 5:-0.6048672168 6:-0.7913138416 7:-0.4328956301 8:-0.7898311463 9:-0.4527336104 10:-0.7927561714 11:-0.4045581446 12:-0.7721236732 13:-0.4447156587 14:-0.9894187113 15:0.0410880229 16:-0.8093811992 17:-0.4887497689 
-0.0 -1.0 0.0 0.0 1.0 1.0 0:-0.7977276728 1:-0.5373909326 2:-0.8027120271 3:-0.5948935325 4:-0.787509906 5:-0.5775652019 6:-0.7978462043 7:-0.427095877 8:-0.7977120741 9:-0.4003533627 10:-0.7985691515 11:-0.1817211993 12:-0.8556343749 13:-0.1938082997 14:-0.9855390385 15:0.0987677106 16:-0.8040086973 17:-0.5129955929 
-0.0 -0.0 0.0 0.0 1.0 0.0 0:-0.7964483726 1:-0.6254373342 2:-0.8288977649 3:-0.6538493151 4:-0.7712154473 5:-0.6318038683 6:-0.8005742039 7:-0.4356472279 8:-0.8029197871 9:-0.4929417652 10:-0.8015652365 11:-0.4075187458 12:-0.7658892698 13:-0.4022919051 14:-0.9876963159 15:-0.0616408988 16:-0.8225307118 17:-0.5012119436 
-0.0 -1.0 0.0 0.0 1.0 1.0 0:-0.8022223818 1:-0.564337688 2:-0.8175255771 3:-0.6350705445 4:-0.791360517 5:-0.6264443612 6:-0.7940928264 7:-0.4983234158 8:-0.7931688505 9:-0.4648332428 10:-0.7994638264 11:-0.2407973041 12:-0.855760041 13:-0.2646424196 14:-0.9822656414 15:0.0538567096 16:-0.815817413 17:-0.5186336533 
-0.0 -0.0 0.0 0.0 0.906290681756427 0.0 0:-0.8100261044 1:-0.6311485287 2:-0.8308729271 3:-0.6553186783 4:-0.790363553 5:-0.6291162247 6:-0.8053921678 7:-0.4719987476 8:-0.791935346 9:-0.5165993968 10:-0.7996477592 11:-0.4027896859 12:-0.7624834578 13:-0.395635343 14:-0.9849606132 15:-0.1144847048 16:-0.8136760865 17:-0.5097680786 
-0.0 -1.0 0.0 0.0 0.0 1.0 0:-0.7958790944 1:-0.62291095 2:-0.8286154994 3:-0.6384237564 4:-0.7584310331 5:-0.6252710759 6:-0.7995222801 7:-0.4784502296 8:-0.8077577945 9:-0.4783866303 10:-0.7991257137 11:-0.3439085201 12:-0.7790607428 13:-0.3460129352 14:-0.9919134218 15:0.1132537883 16:-0.8249973581 17:-0.4704787858 
-0.011825401435903153 -1.0 0.30812615320167147 0.5035347620436458 1.0 1.0 0:-0.8007302106 1:-0.6086322356 2:-0.8170023339 3:-0.6298454238 4:-0.7889947849 5:-0.6091977519 6:-0.7958147513 7:-0.3709734484 8:-0.7778341847 9:-0.4094325215 10:-0.7931574296 11:-0.2780228832 12:-0.7722608766 13:-0.2753669822 14:-0.9964873709 15:0.4532529175 16:-0.8004300994 17:-0.4312134265 
-0.0 -1.0 0.0 0.0 0.0 0.0 0:-0.8105394285 1:-0.6090603896 2:-0.8317427874 3:-0.6529430448 4:-0.7690353321 5:-0.6289548131 6:-0.8000074057 7:-0.4528044959 8:-0.7995497328 9:-0.4868093591 10:-0.7985839068 11:-0.3575419895 12:-0.7663223806 13:-0.3896905169 14:-0.9909620669 15:0.0877991579 16:-0.8160157648 17:-0.4522623001 
-0.0 -1.0 0.0 0.0 1.0 1.0 0:-0.8099862138 1:-0.6121629509 2:-0.8180969157 3:-0.6408735536 4:-0.7695628466 5:-0.6145096884 6:-0.7942929652 7:-0.4036557205 8:-0.7957618601 9:-0.4518043701 10:-0.7947904925 11:-0.4069491715 12:-0.7593916989 13:-0.3823131193 14:-0.9873247558 15:-0.0543290738 16:-0.8225232231 17:-0.4985809606 
-0.0 -0.0 0.0 0.0 0.0 0.7024084793470005 0:-0.7926223984 1:-0.598503106 2:-0.8126720073 3:-0.6449433126 4:-0.7992832766 5:-0.6182650139 6:-0.7949078361 7:-0.4208709786 8:-0.7949772819 9:-0.4648589565 10:-0.7940391511 11:-0.3291908139 12:-0.7845157375 13:-0.3869483319 14:-0.9952195626 15:0.3571402532 16:-0.7990634522 17:-0.4549562178 
-0.0 -1.0 0.0 0.0 0.0 0.0 0:-0.8193972104 1:-0.5987722717 2:-0.8166533151 3:-0.6447820531 4:-0.7874063608 5:-0.6211140691 6:-0.7941023073 7:-0.5139062022 8:-0.7863123688 9:-0.4868450078 10:-0.7991834371 11:-0.3452025057 12:-0.8263461722 13:-0.2678008094 14:-0.9910637973 15:0.1991321088 16:-0.8064661162 17:-0.4758461953 
-0.0 -1.0 0.0 0.0 1.0 1.0 0:-0.7900336938 1:-0.5948454332 2:-0.853507868 3:-0.644628879 4:-0.7980788513 5:-0.6252867355 6:-0.7995146132 7:-0.4526175578 8:-0.7897162237 9:-0.4643773712 10:-0.798702609 11:-0.3768291245 12:-0.7548818904 13:-0.3738684782 14:-0.9868496591 15:-0.0024630656 16:-0.8036030314 17:-0.5158452083 
-0.0 -0.0 0.0 0.0 1.0 1.0 0:-0.8015738916 1:-0.6036851023 2:-0.827648419 3:-0.6576812276 4:-0.7391950693 5:-0.6207280473 6:-0.8000658757 7:-0.4701362214 8:-0.7948304946 9:-0.4793499817 10:-0.8039690342 11:-0.4030770904 12:-0.8091843522 13:-0.4174871955 14:-0.9839044998 15:-0.0798183758 16:-0.8586653384 17:-0.4480690556 
-1.0 -0.0 0.0 0.7499481528907977 1.0 1.0 0:-0.7847649805 1:-0.6229579092 2:-0.9179809589 3:-0.6356598192 4:-0.85744759 5:-0.6283033317 6:-0.7987249826 7:-0.4419553831 8:-0.8199494992 9:-0.5050446722 10:-0.8004417108 11:-0.366846182 12:-0.788012856 13:-0.5042889511 14:-0.9445081947 15:-0.3496907579 16:-0.6979147896 17:-0.4886410882 
-0.49333535735766193 -1.0 0.0 0.0 1.0 1.0 0:-0.7915151834 1:-0.5661667099 2:-0.8081992 3:-0.5912970628 4:-0.7946886088 5:-0.5903503518 6:-0.8006305353 7:-0.3278292606 8:-0.7989843336 9:-0.3130345591 10:-0.7988027359 11:-0.1860855552 12:-0.8253350877 13:-0.3462155523 14:-0.990961568 15:0.1619953503 16:-0.7978829217 17:-0.4975210914 
-0.0 -0.0 0.0 0.0 0.0 0.1996493200654448 0:-0.7903060671 1:-0.6048111361 2:-0.8189904965 3:-0.634908853 4:-0.8087384106 5:-0.6109288587 6:-0.7970455259 7:-0.4328589481 8:-0.7947456076 9:-0.4691217915 10:-0.797349417 11:-0.3562513482 12:-0.7821769197 13:-0.3944378497 14:-0.9936527185 15:0.2131295208 16:-0.8018131769 17:-0.4793968457 
-0.0 -0.0 0.0 0.0 0.0 0.34511626311049715 0:-0.7742037053 1:-0.6291926596 2:-0.8603988549 3:-0.6525437868 4:-0.7849993949 5:-0.6250602819 6:-0.7955941168 7:-0.4430689694 8:-0.8004000445 9:-0.4758383929 10:-0.7985321082 11:-0.3738246773 12:-0.7711201259 13:-0.4033361872 14:-0.9896657119 15:0.0176128554 16:-0.8137358114 17:-0.505999193 
-0.0 -1.0 0.0 0.0 0.0 1.0 0:-0.7983383063 1:-0.6149246061 2:-0.8173894821 3:-0.6462514163 4:-0.7792681721 5:-0.6409501406 6:-0.7907248902 7:-0.4888986813 8:-0.7934602606 9:-0.5046655672 10:-0.7918097277 11:-0.3322441794 12:-0.7711373136 13:-0.3380980806 14:-0.9903853704 15:0.0626114047 16:-0.8210370377 17:-0.4569198022 
-1.0 -1.0 0.8985256240325887 1.0 1.0 1.0 0:-0.722820597 1:-0.6232689017 2:-0.9183274414 3:-0.6387887513 4:-0.8792435131 5:-0.6286594692 6:-0.7918972598 7:-0.4275658511 8:-0.798908949 9:-0.5024174575 10:-0.7921524822 11:-0.3798007875 12:-0.8759972539 13:-0.4552242215 14:-0.924256181 15:-0.4495214663 16:-0.6673347051 17:-0.3421382986 
-0.0 -1.0 0.0 0.0 0.0 1.0 0:-0.7943214147 1:-0.623814949 2:-0.820051196 3:-0.636465464 4:-0.7909920305 5:-0.6148349349 6:-0.8018348285 7:-0.4576558111 8:-0.7950133837 9:-0.4796045426 10:-0.7990177315 11:-0.3879227096 12:-0.7730077199 13:-0.3426843009 14:-0.9899933737 15:0.0552681795 16:-0.8121217315 17:-0.5082314969 
-0.146525320776915 -0.0 0.0 0.0 0.0 0.0 0:-0.7872194001 1:-0.6295468019 2:-0.8491828104 3:-0.6545786663 4:-0.7623234896 5:-0.6445416312 6:-0.7967164196 7:-0.4759201492 8:-0.7959736865 9:-0.5121478809 10:-0.8000447086 11:-0.4649586959 12:-0.7510621187 13:-0.4687361348 14:-0.9816747964 15:-0.1937060578 16:-0.8216072693 17:-0.5301758806 
-0.0 -1.0 0.0 0.0 1.0 1.0 0:-0.8093379296 1:-0.6032791541 2:-0.8225541609 3:-0.6527816333 4:-0.7791024091 5:-0.621695245 6:-0.7882849101 7:-0.4527019399 8:-0.7877566751 9:-0.4947394978 10:-0.7910115106 11:-0.3639708064 12:-0.7520973233 13:-0.3895760587 14:-0.9854793678 15:-0.0492542195 16:-0.810671485 17:-0.5039711754 
-0.0 -1.0 0.0 0.0 1.0 1.0 0:-0.7838565022 1:-0.598122083 2:-0.8496075073 3:-0.6612727181 4:-0.7875131549 5:-0.6376097329 6:-0.7970182209 7:-0.4578176583 8:-0.8006873509 9:-0.4725270917 10:-0.7986896965 11:-0.3433126004 12:-0.7624870408 13:-0.3896452815 14:-0.9878058853 15:-0.015164386 16:-0.8116277598 17:-0.5336149094 
-0.0 -1.0 0.0 0.0 0.0 0.0 0:-0.8049762565 1:-0.6402075532 2:-0.8115272645 3:-0.6503318361 4:-0.7870879547 5:-0.6276625211 6:-0.7911227073 7:-0.4537411167 8:-0.7916456565 9:-0.492802391 10:-0.7916271751 11:-0.3508948387 12:-0.7654326988 13:-0.3791244503 14:-0.9900764275 15:0.0767228127 16:-0.8082029378 17:-0.4709434938 
-0.0 -1.0 0.0 0.0 0.0 1.0 0:-0.7935932732 1:-0.6124009495 2:-0.8193892421 3:-0.6455960767 4:-0.7816452133 5:-0.6268302624 6:-0.7891918462 7:-0.4493499537 8:-0.7993402292 9:-0.4920967654 10:-0.7917155479 11:-0.3322293348 12:-0.7748910901 13:-0.390050115 14:-0.9916489615 15:0.1083705147 16:-0.8153367613 17:-0.4781075481 
-0.0 -0.0 0.0 0.0 0.0 1.0 0:-0.783475945 1:-0.6207863993 2:-0.8461141369 3:-0.654829749 4:-0.7944225218 5:-0.6202077988 6:-0.79753858 7:-0.4657624862 8:-0.7963647961 9:-0.4533647285 10:-0.7973721979 11:-0.3482230703 12:-0.7750592058 13:-0.412231007 14:-0.9914767273 15:0.1151245733 16:-0.7981002675 17:-0.4958723828 
-1.0 -1.0 0.7004960484743797 1.0 1.0 1.0 0:-0.8031061144 1:-0.5287311465 2:-0.7978154804 3:-0.569175029 4:-0.7928295183 5:-0.5527592795 6:-0.7979190549 7:-0.3150593681 8:-0.797271688 9:-0.3262358323 10:-0.7976454388 11:-0.1160590304 12:-0.8421498007 13:-0.0512051136 14:-0.9911734152 15:0.3192559955 16:-0.8039588553 17:-0.4639338692 
-0.0 -0.0802699878453615 0.0 0.0 1.0 1.0 0:-0.7940431194 1:-0.6260135113 2:-0.8294045698 3:-0.6476441925 4:-0.7938972618 5:-0.6143385835 6:-0.7911746674 7:-0.4320512468 8:-0.7901769767 9:-0.4672386347 10:-0.7925561732 11:-0.4042896891 12:-0.7641857507 13:-0.3735988686 14:-0.9886307249 15:-0.0074559823 16:-0.8094893949 17:-0.503380154 
-0.0 -1.0 0.0 0.0 1.0 1.0 0:-0.7983190974 1:-0.5520656467 2:-0.8084668269 3:-0.6013093167 4:-0.7905828863 5:-0.5542615099 6:-0.7990657371 7:-0.3699616412 8:-0.7970482428 9:-0.3416404206 10:-0.8000127052 11:-0.2428757916 12:-0.8183425731 13:-0.2919479919 14:-0.9935427357 15:0.2936311689 16:-0.806962566 17:-0.4743485191 
-0.0 -1.0 0.0 0.0 0.0 0.0 0:-0.7901692318 1:-0.5999759126 2:-0.8284748681 3:-0.6491556329 4:-0.8030934617 5:-0.6428583008 6:-0.7875350511 7:-0.5227434029 8:-0.7885806389 9:-0.4824821884 10:-0.8000614555 11:-0.3407346841 12:-0.8301031071 13:-0.3447668815 14:-0.987484448 15:0.0538366334 16:-0.8116674334 17:-0.4775832006 
-0.0 -1.0 0.0 0.0 1.0 1.0 0:-0.783494298 1:-0.5961826888 2:-0.8315519157 3:-0.6123375987 4:-0.7957631943 5:-0.6209634704 6:-0.7917736396 7:-0.4028772677 8:-0.7944125016 9:-0.3887794613 10:-0.7954535707 11:-0.3185836821 12:-0.8239271235 13:-0.3529696724 14:-0.990837904 15:0.1647934701 16:-0.7958402241 17:-0.5201526617 
-0.0 -1.0 0.0 0.0 1.0 1.0 0:-0.8100106541 1:-0.623474195 2:-0.8339511427 3:-0.6476441925 4:-0.7543237168 5:-0.6280642025 6:-0.7954751823 7:-0.4972034332 8:-0.7945372161 9:-0.4815222032 10:-0.794147151 11:-0.3853321272 12:-0.7632087566 13:-0.3661034859 14:-0.9858494467 15:-0.0722356853 16:-0.8224808023 17:-0.5161593662 
-0.0 -1.0 0.0 0.0 1.0 1.0 0:-0.8294296582 1:-0.5751314922 2:-0.8193161314 3:-0.6288914623 4:-0.7928854494 5:-0.6208020589 6:-0.7993681756 7:-0.4887452407 8:-0.7895069715 9:-0.4622146549 10:-0.8026537058 11:-0.2549141706 12:-0.8273634949 13:-0.1645212338 14:-0.9912167599 15:0.2039378106 16:-0.8011864617 17:-0.4998904996 
-0.0 -1.0 0.0 0.0 0.0 1.0 0:-0.794348672 1:-0.6106671151 2:-0.8218455205 3:-0.6368671454 4:-0.7551483555 5:-0.6224961844 6:-0.7947588295 7:-0.4227650897 8:-0.8187055582 9:-0.4328469466 10:-0.7984870754 11:-0.3636639581 12:-0.7913731883 13:-0.4226782425 14:-0.9916391645 15:0.1215579221 16:-0.833171989 17:-0.4681635838 
-1.0 -0.0 -0.0 0.7704926800268086 0.0 0.0 0:-0.7960850783 1:0.582001895 2:-0.7962100119 3:0.6145587124 4:-0.7963070598 5:0.6190904559 6:-0.7961675192 7:0.7506876029 8:-0.7961639279 9:0.858127987 10:-0.7961769481 11:0.8885137382 12:-0.8314207073 13:-0.7962043875 14:-0.9977610359 15:-0.4797667421 16:-0.8024196628 17:-0.7962043875 
-1.0 -0.0 -0.0 0.2399521723827008 0.0 0.0 0:-0.796256735 1:0.5432664885 2:-0.7961847712 3:0.54189399 4:-0.796186488 5:0.5229730166 6:-0.7962559025 7:0.8117595134 8:-0.7963178453 9:0.7378173922 10:-0.7963013395 11:0.4864124709 12:-0.8329217206 13:0.5569109283 14:-0.9975082052 15:0.3135408426 16:-0.8018362811 17:0.5436628614 
-1.0 -0.0 -0.0 1.0 0.0 0.0 0:-0.7962806772 1:0.5323703363 2:-0.796189301 3:0.5547073047 4:-0.7961807976 5:0.5490194864 6:-0.7962587645 7:0.5774275653 8:-0.7962303434 9:0.795640265 10:-0.7962821701 11:0.1394466341 12:-0.834575605 13:0.044575423 14:-0.9972343948 15:-0.7962043875 16:-0.8005001949 17:-0.7962043875 
-1.0 -0.0 -0.0 1.0 0.0 0.0 0:-0.7962729736 1:0.5825037664 2:-0.796189422 3:0.5505452932 4:-0.7962341668 5:0.5296374994 6:-0.7961272283 7:0.8314997507 8:-0.7959439788 9:0.6897020888 10:-0.7961780066 11:0.8285060624 12:-0.8322416924 13:-0.0697467953 14:-0.9976764805 15:0.4887895453 16:-0.7999217339 17:0.2140568525 
-0.0 -0.0 -0.0 1.0 0.0 0.0 0:-0.7962933041 1:0.5806688726 2:-0.7961681237 3:0.5601453022 4:-0.796296196 5:0.559363345 6:-0.7962351889 7:0.7747878729 8:-0.796151059 9:0.7688389906 10:-0.7962855138 11:0.4434544185 12:-0.8319758495 13:-0.5714268332 14:-0.9977198383 15:-0.2563552007 16:-0.8001633954 17:-0.4340113913 
-1.0 -0.1793317973208911 -0.16110937757403135 0.28073660184706545 0.2742032303875543 0.16179315027980082 0:-0.7961955352 1:0.4290987692 2:-0.7962081892 3:0.548537888 4:-0.7962958868 5:0.550685712 6:-0.7960976664 7:0.3354327796 8:-0.7959441154 9:0.832611216 10:-0.7960421759 11:0.2499743288 12:-0.845807912 13:0.5846161285 14:-0.9945341676 15:-0.7962043875 16:-0.8065917414 17:-0.7962043875 
-1.0 -0.0 -0.0 0.0 0.0 0.0 0:-0.7962106725 1:0.6349934951 2:-0.796167047 3:0.6247250351 4:-0.7960209379 5:0.6341818824 6:-0.7962704438 7:0.8263766943 8:-0.7960753686 9:0.7798814134 10:-0.7962466765 11:0.6767482967 12:-0.8297232244 13:-0.7962043875 14:-0.9981429734 15:-0.7962043875 16:-0.7970351959 17:0.5636853247 
-1.0 -0.2025308316538743 -0.22181174212929392 1.0 0.1887110298596142 0.3773284497903879 0:-0.7965965916 1:0.3426043668 2:-0.7962013501 3:0.6550959097 4:-0.7960468446 5:0.512647979 6:-0.7962723495 7:0.9084742282 8:-0.7961410063 9:0.7463865644 10:-0.7962119016 11:0.9157541197 12:-0.832061847 13:0.1416513718 14:-0.9976457825 15:0.6274261301 16:-0.8024480635 17:-0.7962043875 
-0.9998460602449736 -0.0 -0.0 0.0 1.0 1.0 0:-0.7963252873 1:0.0286854153 2:-0.7961005408 3:0.3971703842 4:-0.7963583574 5:0.2220699942 6:-0.7963396499 7:0.7812928282 8:-0.7954308687 9:0.6227928349 10:-0.7960114754 11:0.8282747635 12:-0.832417778 13:0.3724688605 14:-0.9974564967 15:0.3135408426 16:-0.8052960909 17:0.4897997946 
-0.0 -0.11524514863554969 -0.13386389718902947 1.0 0.0 0.0 0:-0.7962978388 1:0.641233383 2:-0.7961887004 3:0.6177909918 4:-0.7962051957 5:0.6408295049 6:-0.7962008231 7:0.9140516089 8:-0.796246811 9:0.8963348937 10:-0.7961986575 11:0.9080866863 12:-0.843559219 13:-0.7962043875 14:-0.9945851716 15:-0.7962043875 16:-0.8137151646 17:-0.7962043875 
-0.0 -0.0 -0.0 0.39071618993036444 0.0 0.8305758432797224 0:-0.7961369292 1:0.1944384147 2:-0.7961632648 3:0.4650167873 4:-0.7958696144 5:0.2933515876 6:-0.7959201747 7:0.826756177 8:-0.795821366 9:0.6659829383 10:-0.7959055941 11:0.5684149681 12:-0.8336992335 13:0.5997914314 14:-0.9972813153 15:0.2098134335 16:-0.8039287095 17:0.6716962739 
-1.0 -0.06811403851888236 -0.06923545955549092 0.4331872333634332 0.2885961509401879 0.2098363846284803 0:-0.7960207904 1:0.3804994054 2:-0.7962539321 3:0.5865577152 4:-0.7964752036 5:0.4031584519 6:-0.7962008096 7:0.8172415868 8:-0.7961639817 9:0.8991884986 10:-0.7964721905 11:0.3848959063 12:-0.8317146683 13:0.6458244904 14:-0.9975172962 15:0.6317681874 16:-0.8068061711 17:-0.4581649496 
-0.0 -0.0 -0.0 0.4507819070767037 0.0 0.0 0:-0.7962495789 1:0.5172065846 2:-0.7961821003 3:0.5460844808 4:-0.7961548467 5:0.5351149675 6:-0.7962417062 7:0.7688389906 8:-0.7965467443 9:0.747833562 10:-0.7962754261 11:0.5527622308 12:-0.8290166478 13:-0.5944310469 14:-0.9980880187 15:-0.7962043875 16:-0.8045815522 17:-0.7962043875 
-0.0 -0.0 -0.0 1.0 0.0 0.0 0:-0.7961288413 1:0.5079690475 2:-0.7962153014 3:0.6146330792 4:-0.7962156928 5:0.6426624126 6:-0.796199478 7:0.9154723731 8:-0.7961886502 9:0.8912818164 10:-0.796191986 11:0.918030276 12:-0.843209285 13:0.5496732527 14:-0.9946586705 15:-0.7962043875 16:-0.8138242633 17:-0.5256971221 
-0.0 -0.0 -0.0 1.0 0.0 0.0 0:-0.7962682741 1:0.6208004742 2:-0.7961995202 3:0.6085525104 4:-0.7962519246 5:0.5894471936 6:-0.7962016839 7:0.8749214566 8:-0.7962288409 9:0.8818082699 10:-0.7961811716 11:0.8698293803 12:-0.8368299432 13:0.3186382966 14:-0.9959427614 15:-0.7962043875 16:-0.8151290859 17:-0.7962043875 
-1.0 -0.0653177589611047 -0.09665482186363218 0.3451692272038435 0.06664528755175182 0.0 0:-0.7963249033 1:0.5661939415 2:-0.796170929 3:0.6203557032 4:-0.7961799273 5:0.637319775 6:-0.7963382487 7:0.2581452388 8:-0.7962150405 9:0.8637434916 10:-0.7963351147 11:0.2026800958 12:-0.8322715141 13:0.6124140422 14:-0.9976282006 15:0.6317681874 16:-0.8016882318 17:0.5877889285 
-1.0 -0.0 -0.0 1.0 0.0 0.0 0:-0.7962262016 1:0.6062096685 2:-0.7962027615 3:0.6160009444 4:-0.7961883326 5:0.5909112413 6:-0.7962141124 7:0.8961679462 8:-0.7961923626 9:0.8011157841 10:-0.7961975815 11:0.9174617946 12:-0.8372214863 13:0.4007448522 14:-0.995873699 15:-0.7962043875 16:-0.8150099825 17:-0.7962043875 
-1.0 -0.0 -0.0 0.0 0.0 0.0 0:-0.796237621 1:0.6299593845 2:-0.7961942332 3:0.6287883381 4:-0.7961839148 5:0.623240451 6:-0.7962822804 7:0.6160780079 8:-0.7962166545 9:0.918030276 10:-0.7962258548 11:0.8466670073 12:-0.8294379859 13:-0.7962043875 14:-0.9981859024 15:-0.7962043875 16:-0.7978641668 17:-0.7962043875 
-1.0 -0.0 -0.0 1.0 0.0 0.0 0:-0.7962595958 1:0.5246860074 2:-0.7961921595 3:0.6198079023 4:-0.7962624107 5:0.6246005817 6:-0.7961080672 7:0.7601837772 8:-0.7960553271 9:0.8792104188 10:-0.7961373762 11:0.6160780079 12:-0.8247224031 13:0.622752688 14:-0.9971260932 15:-0.7962043875 16:-0.823047559 17:-0.6634019408 
-1.0 -0.0 -0.0 1.0 0.0 0.0 0:-0.7963354299 1:0.5940083885 2:-0.7961850916 3:0.6305724125 4:-0.796211398 5:0.5604817077 6:-0.7962350066 7:0.8798369424 8:-0.7962328367 9:0.9114415995 10:-0.7962398017 11:0.8937921795 12:-0.8291963995 13:-0.7962043875 14:-0.9982215491 15:-0.7962043875 16:-0.7982936568 17:-0.7962043875 
-0.0 -0.0 -0.0 1.0 0.0 0.0 0:-0.7963902702 1:0.6386690961 2:-0.7961860554 3:0.6214240083 4:-0.7960146247 5:0.6331233999 6:-0.7961964651 7:0.9103586019 8:-0.7961216658 9:0.8704552474 10:-0.7962279262 11:0.8644573943 12:-0.8415641579 13:-0.7962043875 14:-0.9950682306 15:-0.7962043875 16:-0.8135152823 17:-0.7962043875 
-1.0 -0.11662009833488608 -0.11677375930865337 0.27457679454854966 0.3413675250522443 0.5679920396874687 0:-0.7963383914 1:0.5520282238 2:-0.7961704134 3:0.5531237268 4:-0.7961935356 5:0.5633243453 6:-0.7963247205 7:-0.1010839923 8:-0.7960415042 9:0.6249541491 10:-0.7962674785 11:0.4804274413 12:-0.8321092433 13:-0.2997670017 14:-0.9976733491 15:0.2913672292 16:-0.8011333842 17:0.5405310897 
-0.0 -0.0 -0.0 1.0 0.0 0.0 0:-0.7961793381 1:0.6407160459 2:-0.7961949649 3:0.5889359677 4:-0.7962753281 5:0.5999706495 6:-0.7961469128 7:0.6881036688 8:-0.7961394476 9:0.7954638224 10:-0.7961662952 11:0.7601837772 12:-0.8326863994 13:0.6568640703 14:-0.9975194938 15:-0.7962043875 16:-0.8029047634 17:-0.3214591156 
-1.0 -0.0 -0.0 0.0 0.0 0.0 0:-0.7961371402 1:0.576731804 2:-0.7961843793 3:0.6221137552 4:-0.7961435115 5:0.6153209414 6:-0.7962084631 7:0.918030276 8:-0.7961763563 9:0.8588059878 10:-0.7961719983 11:0.8885137382 12:-0.8318015091 13:-0.7962043875 14:-0.9977504377 15:-0.7962043875 16:-0.8002027989 17:-0.7962043875 
-0.49831452568863166 -0.0 -0.0 0.6638654308422839 0.0 0.0 0:-0.7963536471 1:0.4327913718 2:-0.7962046092 3:0.6264772624 4:-0.7961390048 5:0.6330860494 6:-0.7961885288 7:0.9186518776 8:-0.7961874573 9:0.8828178727 10:-0.7962134688 11:0.9114415995 12:-0.8320778793 13:-0.6405744517 14:-0.9975963813 15:-0.0067326177 16:-0.8038367759 17:0.2261891977 
-0.0 -0.0 -0.0 0.0 0.0 0.39426281911340555 0:-0.7963347399 1:0.3111556314 2:-0.7962184703 3:0.5577584963 4:-0.7963957755 5:0.3907697087 6:-0.7960987222 7:0.6521549805 8:-0.7961061179 9:0.7694463531 10:-0.7963289813 11:0.5360630899 12:-0.8305611312 13:0.4615441563 14:-0.997893805 15:-0.299978674 16:-0.8028154654 17:-0.3578490197 
-0.2628963460424077 -0.0 -0.0 0.0 0.0 0.0 0:-0.7962045272 1:0.2703812213 2:-0.7961936116 3:0.5470196365 4:-0.797059826 5:0.2325569455 6:-0.7959686306 7:0.7694613055 8:-0.7962560131 9:0.8030185217 10:-0.7959648221 11:0.5486591208 12:-0.8332774265 13:0.5736277565 14:-0.9973736038 15:0.4098748296 16:-0.8033979693 17:0.4975977637 
-1.0 -0.024404275866833684 -0.03320777085557686 1.0 0.0 0.030157369626838803 0:-0.7961689839 1:0.5424571811 2:-0.7961920523 3:0.5716523606 4:-0.7962982098 5:0.4748564766 6:-0.7962013126 7:0.8173338668 8:-0.7961907335 9:0.7957981408 10:-0.7961939496 11:0.8052972498 12:-0.8320980485 13:-0.7962043875 14:-0.9976045826 15:0.1327830394 16:-0.8035276356 17:0.5433129046 
-1.0 -0.0 -0.0 0.0 0.0 0.0 0:-0.7962173554 1:0.4763566402 2:-0.7961503509 3:0.6265523574 4:-0.7964634965 5:0.5752792382 6:-0.7962099059 7:0.8356604572 8:-0.7961227367 9:0.8463566617 10:-0.7961661606 11:0.9243107635 12:-0.8293286159 13:-0.7962043875 14:-0.9979161241 15:-0.7962043875 16:-0.8070830375 17:0.5723202844 
-0.0 -0.0 -0.0 1.0 0.0 0.0 0:-0.7962471538 1:0.5790696253 2:-0.7961858303 3:0.6154410732 4:-0.7961350403 5:0.6276895728 6:-0.7961564358 7:0.8797331609 8:-0.7962579212 9:0.8781008007 10:-0.7961733434 11:0.8401805489 12:-0.8309640996 13:0.626460245 14:-0.9977883608 15:-0.7962043875 16:-0.8038517486 17:0.562073192 
-1.0 -0.14626547819286434 -0.1480985626425998 1.0 0.32366034722026316 0.1362689691125238 0:-0.7962102055 1:0.5437955449 2:-0.7962160339 3:0.578155649 4:-0.7961271515 5:0.5518981504 6:-0.7962628024 7:0.4723520003 8:-0.7961490188 9:0.6605205382 10:-0.7962519922 11:0.6010038467 12:-0.8316473148 13:-0.7962043875 14:-0.9977775052 15:-0.7962043875 16:-0.8001929017 17:-0.7962043875 
-0.0 -0.0 -0.0 1.0 0.0 0.0 0:-0.7962521623 1:0.6461345892 2:-0.7961922071 3:0.615174995 4:-0.7961358358 5:0.6242770505 6:-0.7961875204 7:0.8528756775 8:-0.7962587821 9:0.8782062555 10:-0.7961883274 11:0.8190605826 12:-0.831459524 13:-0.7962043875 14:-0.9976896869 15:-0.2992870081 16:-0.8042416834 17:-0.548696637 
-1.0 -0.0 -0.0 0.0 0.0 0.0 0:-0.7962951147 1:0.5955047324 2:-0.7961700239 3:0.6332798998 4:-0.7962633427 5:0.6383553184 6:-0.7962483712 7:0.5766079213 8:-0.7961928199 9:0.8995717874 10:-0.7962412155 11:0.710026155 12:-0.8327330415 13:0.6578695148 14:-0.9975119209 15:-0.7962043875 16:-0.8028954547 17:-0.7962043875 
-0.0 -0.0 -0.0 0.11247224959365862 0.0 0.0 0:-0.7962856024 1:0.3705045854 2:-0.7962020878 3:0.5786626128 4:-0.7961466648 5:0.46623732 6:-0.7962664624 7:0.9004016648 8:-0.7958956944 9:0.8644647769 10:-0.7962441208 11:0.8931290963 12:-0.8246681709 13:0.4828529583 14:-0.9971391285 15:-0.7962043875 16:-0.8230002758 17:-0.2881799706 
-0.3575954466654498 -0.0 -0.0 1.0 0.0 0.0 0:-0.7962492719 1:0.5662038677 2:-0.7961865811 3:0.5550835998 4:-0.7961845216 5:0.5524785115 6:-0.7962126333 7:0.8314997507 8:-0.7961746913 9:0.8231198894 10:-0.7962294083 11:0.8081749745 12:-0.8313337659 13:-0.7962043875 14:-0.9978303434 15:-0.7962043875 16:-0.8003194682 17:-0.7962043875 
-0.9954179142663214 -0.2335576446362783 -0.26037295307874975 0.4558674193192034 0.2134381148802266 0.13951560565548105 0:-0.7961793933 1:0.61295966 2:-0.7961868694 3:0.6260483968 4:-0.7963344381 5:0.6221224279 6:-0.796396665 7:-0.1215911024 8:-0.7962220348 9:0.9183145293 10:-0.7963252822 11:-0.2089674655 12:-0.8344490427 13:0.6558587492 14:-0.9972567828 15:-0.7962043875 16:-0.8002902966 17:0.7396822564 
-0.4965864298987364 -0.0 -0.0 0.0 0.0 0.0 0:-0.7962144886 1:0.3972526017 2:-0.7962411517 3:0.6290535828 4:-0.7961948194 5:0.5782470551 6:-0.7958942149 7:0.3285365363 8:-0.7961384254 9:0.8092371585 10:-0.7960231127 11:0.6651317182 12:-0.8308153968 13:0.6239321155 14:-0.997732126 15:0.5579433147 16:-0.805481934 17:0.6539857188 
-0.0 -0.0 -0.0 0.0 0.0 0.27452552733986774 0:-0.7963455947 1:0.2533996669 2:-0.796188472 3:0.5650683486 4:-0.7962405765 5:0.530909634 6:-0.7962268155 7:0.8297034204 8:-0.7962298617 9:0.8051665907 10:-0.796205776 11:0.8270095851 12:-0.8394410948 13:-0.234835231 14:-0.9955143665 15:0.0261423419 16:-0.8138116913 17:0.044575423 
-0.5581715303564452 -0.0 -0.0 0.0 0.0 0.0 0:-0.7962952759 1:0.4012118334 2:-0.7961885804 3:0.5513047708 4:-0.7961133035 5:0.5493168117 6:-0.7961322245 7:0.7460928033 8:-0.7961943445 9:0.7585745602 10:-0.7961599839 11:0.773277941 12:-0.8440135767 13:-0.7962043875 14:-0.9944640281 15:-0.7962043875 16:-0.8138421282 17:0.5377024402 
